0.192092 -0.043174 0.012716 -0.062486 0.032247 -0.049187 0.034872 -0.133146 0.049629 0.113396 -0.044115 0.054507 -0.126849 -0.066033 -0.078518 0.032271 -0.012674 0.029282 0.055949 -0.041006 0.012314 0.000994 0.066527 0.041975 -0.086834 -0.130095 0.093416 -0.029100 0.088730 -0.055340 -0.062808 -0.080925 -0.009582 0.103252 0.082303 -0.105293 0.008197 -0.070077 0.017670 0.026999 0.015504 -0.085903 -0.021341 0.029327 -0.017544 -0.034576 -0.164823 0.010742 0.125500 -0.087014 -0.025994 0.068994 -0.101237 0.037964 -0.133201 -0.033689 0.069340 -0.008739 0.046546 0.004547 -0.062861 -0.151542 -0.070203 0.001326 -0.043790 -0.017052 -0.047592 -0.086240 0.071616 -0.036989 0.008836 0.042450 0.007686 -0.200311 -0.096809 0.087697 0.044684 -0.013547 -0.119476 0.102038 -0.119265 0.098476 0.116159 0.021020 -0.016236 0.059439 0.036677 -0.089136 0.056181 -0.019611 -0.072268 0.038103 0.046181 0.093501 -0.006191 -0.071673 -0.058535 -0.032977 0.027567 0.038101 -0.014017 -0.011258 -0.003323 -0.028514 -0.051239 0.043803 0.008333 -0.021951 -0.015244 0.019788 -0.089117 0.130100 -0.040295 0.007617 0.092836 -0.038955 0.108865 0.090307 -0.131832 -0.153675 -0.020362 -0.092484 0.094591 -0.020664 -0.053025 0.182404 -0.005950 -0.098826 -0.037605 0.048997 0.081452 0.084778 -0.053321 -0.024057 -0.048387 -0.058787 0.013384 -0.058580 -0.018758 0.017073 0.093415 0.031766 -0.004994 -0.118588 0.090937 0.058012 0.019804 0.080063 -0.068596 0.024711 0.000919 -0.059767 -0.083035 -0.048993 0.076208 0.032983 -0.026269 -0.077556 0.009948 0.039434 -0.051854 0.053354 -0.161882 -0.155951 -0.050111 -0.062101 -0.154151 -0.030266 0.082323 0.028091 -0.052443 -0.009040 0.007435 -0.009554 -0.064792 -0.028529 -0.168563 -0.043526 -0.012306 -0.024597 0.035476 -0.078755 0.053675 0.116636 0.065733 -0.035690 0.048020 -0.035490 -0.050237 0.000653 0.005404 -0.009025 0.114166 -0.002281 0.138566 -0.006359 0.099921 -0.094901 -0.130187 -0.039137 -0.137887 0.008273 -0.000734 -0.000251 0.004369 0.110797 -0.032271 0.107631 0.092500 -0.038248 -0.128443 -0.101706 0.103979 0.014987 0.063169 -0.011371 0.112760 0.082152 0.015049 -0.002855 -0.090746 -0.034770 0.005132 0.004131 -0.046420 0.024161 0.022286 0.012724 -0.078976 -0.104308 0.055719 0.003993 -0.047536 -0.053838 -0.000601 -0.006683 0.044201 0.024336 0.000239 0.064661 0.062284 0.053627 -0.012087 0.030404 -0.043196 -0.056556 -0.036424 0.065816 0.037421 -0.074487 -0.039411 -0.020660 0.041083 0.067074 -0.058965 0.135826 -0.078343 0.007772 -0.005045 0.017319 -0.006039 0.086388 0.048360 -0.046227 -0.044028 -0.021053 0.010953 0.050099 0.101590 0.003278 0.001029 -0.023281 -0.046059 -0.020857 0.034406 0.024234 0.099689 -0.023723 -0.095784 0.019193 0.021620 -0.009876 0.011300 -0.134855 0.053257 -0.068720 -0.151674 -0.181117 0.171944 0.016800 -0.035094 0.020211 0.041285 0.069183 -0.084876 -0.132535 -0.075530 0.070265 -0.028187 -0.022533 0.105386 0.028622 -0.121812 0.152203 0.011346 0.038018 -0.021593 -0.104749 -0.012480 -0.001240 0.026729 0.042027 0.089215 -0.093588 -0.016984 -0.105309 -0.169389 0.044190 -0.039760 0.123570 0.052258 -0.024823 0.059835 -0.057196 0.126771 -0.040216 -0.044898 0.139970 0.043833 0.061625 -0.070660 -0.007750 0.057741 -0.058694 0.050950 0.004199 -0.141446 0.105172 0.015197 -0.032261 0.100713 -0.020959 0.084990 0.016726 -0.027718 0.096946 -0.073939 -0.076022 -0.063925 -0.166476 -0.054855 -0.062116 -0.054886 -0.107096 0.023392 -0.140993 0.077847 0.068997 -0.086559 0.004037 -0.012866 -0.074385 -0.037855 -0.163336 -0.032312 -0.024073 -0.029516 -0.056849 -0.097117 -0.058142 0.085670 0.000651 -0.037280 0.219735 -0.056359 0.144115 0.054934 0.089293 0.076404 0.028950 -0.016589 0.116712 0.021305 0.026491 -0.034665 -0.128645 0.040639 0.164160 -0.102568 -0.085641 0.027368 0.113175 0.026921 -0.069691 -0.175874 0.083366 0.000458 0.032922 0.020840 0.152859 -0.056591 0.007686 -0.055694 0.042696 0.157495 -0.056889 -0.019758 0.125801 0.025174 -0.041454 0.051239 0.111854 -0.171641 -0.086424 -0.059572 -0.065085 0.056172 -0.038810 -0.087663 -0.030980 0.121978 -0.179423 0.064756 0.036807 -0.043965 -0.045456 0.011366 -0.030115 -0.088960 -0.073815 0.059332 0.130950 0.064341 0.073084 0.171278 -0.059547 0.025640 -0.076450 -0.063606 -0.051170 -0.065557 0.021018 0.119453 -0.024193 -0.077045 -0.057126 -0.179397 0.005209 0.045071 -0.025028 -0.040572 -0.071717 -0.015683 0.029789 -0.032857 0.067276 -0.130482 0.103950 0.046094 -0.076236 -0.135107 0.045546 -0.078989 0.091391 0.007953 -0.010152 -0.007941 0.107656 -0.000168 0.041943 -0.077911 -0.031395 -0.092722 -0.138000 -0.045813 -0.016837 0.015201 0.105953 -0.085022 0.029271 0.070639 0.050182 -0.033088 0.070395 0.013845 0.022648 -0.063979 0.094079 -0.071738 -0.125806 0.072228 -0.014498 -0.028954 -0.029311 0.085743 0.045080 -0.007765 -0.081414 0.042208 -0.115043 -0.016677 0.002263 -0.012606 0.057296 -0.064118 0.013227 0.109653 -0.002878 -0.073628 -0.130551 0.043842 0.056541 -0.049427 0.057070 -0.074169 0.036319 0.206427 -0.017852 -0.130555 -0.121910 0.083747 0.014652 0.007402 0.002470 -0.017902 0.068700 -0.063095 0.081778 0.111600 -0.071993 0.082102 0.024772 -0.155427 0.085183 -0.009896 -0.141215 -0.116786 -0.047175 -0.103824 -0.058413 0.050425 -0.243257 -0.086589 -0.123556 0.032273 -0.070598 -0.146138 -0.043851 -0.129452 -0.141872 0.011072 -0.050219 -0.017892 -0.026690 -0.097252 0.008307 -0.007320 -0.118474 0.164675 -0.105300 0.004062 0.018699 -0.146512 0.003902 -0.087308 -0.074944 -0.011220 -0.009609 -0.017054 -0.013239 -0.021701 -0.127685 -0.079111 0.112107 -0.076219 -0.003724 -0.003713 0.076992 -0.033846 -0.138545 0.006490 -0.012979 -0.043409 -0.030570 0.009582 0.105320 7.499462 8.614820 1.305812 11.888832 19.755252 15.868037 19.951893 19.193067 14.467377 -3.391276 0.079785 12.308310 16.078819 14.503608 17.994610 19.049138 20.567979 10.441586 16.285854 18.920836 0.725738 10.171945 8.466362 1.054642 12.942557 23.186871 19.717711 20.770522 20.039905 14.620798 -3.091431 -0.033197 13.689097 13.848098 16.739564 21.272277 18.602845 23.102445 17.442323 11.978257 18.568588 0.316423 7.936569 6.653694 0.967244 3.555823 22.828918 23.016008 20.110275 17.766615 13.238454 -4.926780 -0.027250 11.808741 18.385087 16.012580 22.152343 12.000008 24.268516 15.714862 19.657673 21.086098 0.177491 5.543963 7.436153 0.079361 -4.424105 23.288817 19.117427 19.524338 17.428167 13.647074 -4.686375 0.029073 17.395231 21.317925 18.739844 23.232205 5.398341 24.231434 22.250899 21.439806 20.080944 0.022511 6.976048 8.383362 0.762909 -5.450952 20.273435 19.207481 21.528883 15.702951 15.830399 -4.128960 0.069943 16.192163 17.876542 18.903375 19.531597 3.921470 21.635778 15.482619 21.746566 19.991592 2.916093 13.280062 15.668344 7.346174 22.105894 18.563381 17.734144 20.603873 18.202895 15.529572 -3.861745 19.834153 15.427491 13.757279 15.162069 20.214144 17.367791 20.612476 7.560792 11.030269 14.410409 3.755995 21.232830 19.551022 4.631535 24.382250 25.261446 18.173919 21.861516 18.624605 14.530200 -6.547910 16.019434 14.294559 15.660969 15.810681 21.930779 5.925874 21.424240 8.524627 5.182581 19.015153 2.013420 15.663033 20.380750 3.009023 15.386978 26.021064 21.366265 21.416486 22.180053 14.740081 -7.760549 16.046961 17.276836 17.339782 20.208986 22.554788 11.474706 24.967731 17.436109 12.656482 19.714875 1.741178 14.192808 15.988936 1.408890 5.147472 27.837564 20.460690 21.829679 16.742680 14.732760 -8.338780 19.895964 17.119729 21.047423 21.901181 25.790765 10.150988 26.900037 17.594016 15.878817 24.335061 1.265179 8.809806 14.305495 2.965492 -0.170176 23.476447 19.674981 24.230309 18.326387 16.934217 -4.756622 18.948032 20.963762 19.105513 20.771427 22.536226 11.350877 25.367034 18.417309 17.626404 20.644332 7.512439 16.973733 13.727374 14.227642 28.437827 16.455539 19.792125 19.613402 16.263232 14.202824 -6.055696 15.619243 14.923189 9.216722 12.025587 15.534756 22.321234 5.316392 3.236815 3.154170 3.199209 11.295103 20.953469 25.833801 14.706446 33.113105 19.759094 21.717135 18.955942 21.131661 14.195820 -7.346097 14.819120 17.120484 6.511925 17.487617 13.334879 11.797370 1.959077 2.799903 0.675852 4.056039 10.048627 18.902564 28.194752 12.350280 29.912330 23.449051 25.495713 16.116118 22.630083 12.990610 -9.639025 13.895100 14.689514 11.574765 18.637463 18.934650 24.022924 9.285276 8.835015 2.513854 5.450284 12.193634 26.286325 27.936541 12.802370 20.921739 27.252090 21.772698 19.568195 21.877284 14.278098 -9.137245 17.336407 19.030140 13.825599 21.936750 24.025694 17.881908 13.591859 11.318366 4.210472 10.630570 8.005161 18.744573 19.743971 13.268618 17.258865 23.071970 21.800481 22.178574 15.554295 16.317578 -7.322539 19.922681 14.835515 17.152503 22.356941 24.258169 21.994402 18.423420 11.504562 7.806463 11.402910 16.942375 18.395844 17.999698 20.901917 34.566623 19.095791 17.746360 19.631989 18.440225 18.609310 -4.313979 15.443696 16.097212 9.380010 10.095727 11.129589 24.895170 0.760290 4.008439 -0.089278 1.150520 23.467590 27.732791 27.117612 25.638694 36.750343 22.388089 21.537614 23.262957 21.225291 14.893511 -5.463367 13.391884 11.200959 6.353202 6.731112 4.739413 16.607044 0.207219 1.517636 -0.355411 0.002718 23.992983 26.224419 26.978563 23.591868 32.576162 25.208361 21.557917 20.110270 21.952776 15.325269 -6.730384 13.341025 15.193069 4.584535 14.876810 9.050623 22.891508 0.229105 -0.609227 -0.742528 0.152028 25.980027 29.969696 31.343184 27.475716 27.483108 25.895015 23.758799 23.872377 18.735925 15.951697 -7.410783 13.876031 10.706483 9.376633 14.596775 16.192467 20.166518 2.053978 4.850064 0.494234 1.013023 18.799854 21.498525 23.311485 22.796257 20.502893 24.118925 21.084077 21.270694 19.168258 18.315689 -5.708319 16.873017 14.873639 17.421159 18.647519 19.417755 22.279744 7.234671 6.054271 2.389372 2.507238 14.544779 18.851356 18.456408 19.400890 27.505358 18.337403 14.122611 17.372220 15.730754 -0.001237 -6.428350 11.300043 13.482832 10.902241 11.304368 9.537558 26.445744 -0.047030 4.060865 1.288930 0.141430 16.931518 24.875048 23.684669 22.256154 32.456398 19.834856 15.708958 23.693428 17.979909 -0.045295 -3.952712 10.588035 13.752622 12.391984 9.621247 4.975611 27.086656 0.055707 2.151280 -0.046288 0.005086 19.416618 24.960903 23.714973 24.332842 25.723082 19.997500 14.994239 22.834024 15.682601 0.072652 -5.340449 12.737315 9.737495 14.093244 11.526409 7.938969 27.271016 0.130723 0.254212 -0.009916 0.060068 19.361703 26.869675 23.951860 22.781856 24.284313 21.029349 14.773508 22.675348 16.845756 0.019800 -5.048033 11.557493 12.119013 17.418381 13.634198 13.119382 27.064770 0.352649 1.808135 2.772620 0.050779 15.613592 21.274298 18.958019 22.927697 21.946365 18.623147 16.095811 21.107213 16.190020 0.064779 -5.718911 13.400317 13.156679 15.407160 14.284671 15.391794 22.321389 0.813303 4.902888 5.853474 0.404161 20.669086 12.861769 5.810534 16.686966 15.186798 19.331161 12.742599 9.124475 18.185116 16.751029 -1.817745 -2.223020 -1.795593 -2.213461 -1.195707 -3.507659 -3.397543 -1.068534 -1.479664 -1.109794 -2.426192 -4.123926 -1.900647 -1.644746 -0.612881 -4.500973 -7.370559 -4.220467 -4.368342 -1.981849 -1.140194 -4.118319 -2.871585 -3.689014 -0.197466 -1.427619 -2.408145 -2.956443 -3.164414 -2.373087 -3.341553 -2.678532 -2.813365 -1.494459 -2.105558 -2.374617 -3.638543 -2.506909 -3.373994 -1.744507 -3.203598 -4.269108 -3.568442 -3.788342 -2.568145 -0.827780 -2.376668 -2.311694 -3.218541 -0.327462 -0.034162 -0.038788 0.017382 0.062542 -0.032922 0.014349 0.042454 0.054953 0.052926 -0.046863 -0.033713 -0.064715 0.015855 0.056424 -0.045061 0.057587 -0.085250 0.035282 0.070611 0.002716 0.024239 -0.098795 0.022656 -0.051033 -0.019758 -0.047450 0.015000 -0.110383 -0.018435 -0.005122 0.031264 0.045670 0.114416 0.030290 -0.016029 0.005752 -0.117949 -0.029114 0.071326 0.040984 0.005140 -0.009904 0.013395 0.027478 -0.033109 0.106610 0.104505 0.010687 0.021086 -0.062328 0.021471 -0.019540 0.012516 0.100244 0.002637 0.019254 0.098233 0.052049 0.057176 0.016341 -0.067667 0.029254 0.008099 0.047211 -0.069049 0.049300 0.023207 -0.099560 0.046883 -0.037311 -0.054126 -0.008690 0.003099 0.110845 -0.059939 -0.044818 -0.046347 -0.080143 0.002570 -0.003683 0.035304 -0.048566 -0.008330 0.087434 -0.013553 0.002491 0.052253 -0.020977 0.069471 -0.037020 0.041493 -0.087889 -0.013999 0.025880 0.011047 0.023577 0.025118 -0.138462 -0.033199 -0.034644 0.077204 -0.090313 0.033652 0.090886 -0.010511 -0.026637 -0.032748 0.000759 0.151895 0.113907 -0.110293 -0.007154 -0.061368 0.123878 -0.040042 -0.095348 -0.018916 -0.047411 -0.049122 0.074079 0.031204 -0.014827 -0.032000 0.049781 -0.092107 0.032793 -0.003173 -0.025999 -0.007840 0.053773 0.095188 -0.039802 0.006696 -0.003447 -0.024174 -0.142902 -0.002346 0.046868 0.038843 0.095002 0.077313 0.122207 -0.062926 -0.009704 0.050641 0.008120 -0.008247 0.021214 -0.049545 -0.008360 -0.089025 0.011386 0.090642 -0.098100 0.047358 0.009288 0.061141 -0.056768 -0.008996 -0.002429 0.079242 0.037125 0.067196 0.032660 -0.068672 -0.036145 -0.011352 0.042135 -0.093863 0.039911 0.086397 0.110898 0.084367 0.091816 0.080523 -0.081753 0.067020 -0.036400 -0.080782 0.032694 0.014798 0.106415 0.009927 0.076928 0.034347 -0.033962 0.020608 -0.073463 -0.156932 -0.011382 -0.020678 -0.004631 -0.041014 0.028196 0.014665 -0.060338 0.085402 0.006021 -0.013857 0.007607 0.114553 0.052086 -0.010360 -0.026999 -0.025693 0.044413 0.068353 0.008726 0.007460 0.019152 0.098574 0.068219 -0.067586 -0.055624 -0.014572 -0.055218 -0.005973 0.028093 -0.034332 -0.019003 -0.002619 0.011337 0.053440 0.032473 0.018428 0.038084 -0.020257 -0.088754 0.100040 0.113684 -0.092430 0.061381 -0.086163 -0.047272 -0.057000 -0.006328 0.056377 0.021171 0.055052 0.039900 0.039059 -0.013393 -0.121279 0.049388 0.006342 0.019023 0.082604 -0.111391 -0.015326 0.043891 0.055115 0.009211 0.000562 0.007295 -0.052722 0.015744 0.074407 0.082527 0.019514 -0.037960 -0.003335 0.063271 -0.055265 0.019590 0.099480 -0.025601 0.086656 0.100265 0.025389 -0.034514 0.129738 0.082492 0.062776 -0.073456 -0.059353 0.043904 0.048117 -0.029145 0.004595 -0.025040 -0.021206 -0.020894 -0.094942 0.000634 -0.102567 0.085050 -0.077771 -0.049825 -0.060141 0.003967 -0.063137 -0.050241 -0.123090 -0.057666 -0.056867 0.001618 -0.113077 0.075183 -0.007048 -0.017947 0.021375 0.018195 0.007096 0.094394 -0.010827 -0.086490 0.000837 0.073260 -0.029460 0.085320 -0.013944 -0.062078 0.037448 -0.044937 0.058627 -0.020026 0.015161 -0.136864 -0.025052 -0.028638 0.078747 0.045188 0.037889 -0.034961 -0.094964 -0.144590 -0.034090 0.013388 -0.029443 -0.056531 0.138967 0.126300 0.121581 0.004679 -0.106118 0.033170 -0.008090 -0.032423 -0.016657 -0.044958 0.057630 0.023815 -0.079075 -0.091800 -0.093315 -0.072086 -0.044800 0.004025 0.031803 -0.044174 -0.002011 -0.013024 0.060465 -0.013310 0.054388 -0.065243 -0.011108 -0.080530 -0.024058 0.022598 0.001843 -0.040805 0.127051 -0.029737 -0.066328 -0.039681 -0.154995 -0.074468 -0.040936 -0.018113 0.041497 -0.041288 0.075726 0.006999 0.093689 0.041887 0.047622 0.032560 0.000596 0.060566 0.109630 -0.030127 0.004986 -0.060357 0.075335 0.020058 0.071669 -0.117357 -0.112841 0.002094 -0.034696 -0.115098 -0.021847 -0.004221 -0.016405 0.034335 0.060620 0.029313 -0.116843 -0.044294 -0.182641 0.057967 -0.085313 0.098794 0.004093 -0.075678 0.117189 0.053252 -0.039097 -0.106937 0.069406 -0.063693 -0.067874 0.014167 0.058156 0.128074 -0.073544 -0.081114 0.002963 -0.058982 -0.073855 0.016436 0.069818 -0.025784 0.002969 0.024209 0.009841 -0.030343 -0.161114 -0.006758 -0.063814 0.025452 0.070501 -0.045068 0.150473 -0.082782 0.037365 0.071757 0.046082 0.111339 0.033656 -0.075162 -0.126758 -0.001994 -0.033589 -0.058977 0.091778 -0.043923 -0.007451 0.029887 -0.110356 -0.022594 0.011619 -0.003526 -0.041307 0.014188 -0.033792 -0.067473 -0.006433 -0.006098 -0.000916 -0.045247 0.043487 0.113879 -0.011271 -0.018257 0.000165 -0.025934 0.076318 -0.057470 0.061979 -0.055626 -0.107127 -0.020055 0.031120 -0.167070 -0.048916 -0.032968 -0.074788 0.031911 -0.069614 -0.064800 0.149980 -0.063891 -0.095838 0.006910 0.070338 -0.048613 0.023526 0.015630 0.040014 0.080693 0.016838 -0.049169 -0.032418 0.098311 0.047890 0.004225 0.010076 -0.087578 0.054771 -0.041748 0.004518 0.018715 0.034379 0.006897 -0.100776 0.106664 -0.007208 -0.100836 -0.007794 0.113618 0.008790 -0.030888 0.043578 0.021600 0.037565 -0.107198 0.080946 -0.036019 -0.122265 -0.007945 0.014077 -0.038229 -0.086811 -0.004059 -0.000417 -0.146970 0.037388 0.027309 0.042907 -0.019819 -0.021978 -0.072146 0.074859 0.013010 -0.036689 -0.003758 -0.019418 -0.027174 -0.037524 0.005771 -0.020307 -0.021786 0.001530 0.033699 -0.104962 0.001998 -0.118080 -0.018825 -0.207248 -0.063232 0.035054 -0.064065 -0.063401 -0.043194 -0.018945 -0.061508 0.021997 -0.095806 0.031343 -0.058521 0.030925 -0.021399 -0.063910 -0.019380 -0.114336 -0.011167 -0.019178 0.030504 -0.130133 -0.061161 -0.012223 -0.000834 -0.081932 -0.030031 -0.097579 -0.089979 -0.056926 0.019817 -0.038486 -0.086091 0.008634 0.085052 -0.043278 -0.026626 0.006660 0.106111 0.007359 0.034562 0.046803 0.015363 -0.019201 0.044211 -0.028162 -0.030197 -0.043709 -0.035469 0.080927 -0.023724 0.117456 0.005044 -0.023944 0.021073 0.025803 0.103363 0.025160 0.086482 -0.094659 0.103620 0.068050 -0.094261 0.121083 -0.029238 0.235872 -0.013168 -0.080319 -0.124226 0.029144 0.125006 0.124969 0.112039 0.166739 -0.038047 -0.004465 0.075853 -0.059639 -0.066594 0.047211 -0.028391 -0.023024 0.101206 0.030630 0.012401 0.138018 -0.040036 0.045594 -0.046479 0.042862 -0.119823 0.093716 0.045023 0.080733 0.140003 0.033823 0.235916 0.056656 0.111873 -0.028296 0.011452 -0.046964 -0.015187 0.167979 0.046882 0.102876 0.080506 -0.012519 -0.061462 -0.086136 0.057145 0.053674 0.016815 0.151485 0.097573 0.030728 0.170620 0.138841 -0.030911 0.197186 -0.127675 -0.029084 -0.037908 0.102043 0.119984 0.059179 0.056039 -0.005917 0.035319 0.093708 -0.218932 0.059442 0.051076 -0.014247 0.045492 -0.021802 -0.094118 -0.155369 -0.067762 0.170507 0.178528 -0.005703 0.107361 -0.051892 0.116715 0.020083 0.062103 0.046160 -0.089463 0.050293 0.055936 -0.013075 0.067280 -0.158621 0.187922 -0.021727 0.075435 0.117344 0.017927 0.059648 0.015568 0.140697 -0.052453 0.019188 0.031892 -0.031522 -0.028027 -0.051646 0.192570 -0.229342 0.091658 -0.083919 -0.094976 0.043608 0.070539 0.014506 -0.057931 -0.004908 0.016237 0.145307 0.020649 -0.133249 0.108087 0.039627 0.113649 0.024987 0.023640 0.026683 -0.183365 0.017331 0.027571 0.008763 0.022891 0.027604 0.050903 0.070726 0.063455 -0.052263 -0.010267 0.162742 0.002449 0.240008 0.052028 0.061369 -0.037845 -0.006457 -0.013343 0.118535 0.179015 0.205803 -0.066840 0.126906 -0.057592 0.198923 -0.017231 0.193222 0.154182 0.041583 0.093917 -0.015504 0.061512 0.022929 0.086696 -0.091390 -0.026954 -0.028100 -0.004260 -0.012527 -0.077510 -0.036793 0.247454 0.056372 -0.084950 0.181467 -0.003554 -0.142637 -0.004316 0.072380 0.020474 0.027161 0.088725 0.090800 0.157527 -0.020659 -0.024919 0.052315 -0.021221 0.000954 -0.079452 0.061855 0.004893 0.035140 -0.025079 -0.007840 0.094298 -0.098429 0.029841 0.174909 -0.044172 -0.014279 -0.074129 0.213591 0.053705 0.065888 0.027329 0.091309 -0.006792 0.125643 -0.046388 -0.019368 0.081767 0.065543 -0.018364 0.082945 0.016064 0.063886 -0.009288 -0.142522 0.181628 -0.040574 0.266424 0.010971 0.069685 0.083964 -0.113651 0.112124 -0.041662 0.047228 0.024401 -0.074739 0.098942 0.030433 0.084146 0.019008 0.015266 0.091578 0.029669 0.085059 -0.015826 0.192727 0.100237 -0.075601 0.036471 0.050810 0.032741 0.020015 0.153502 0.032715 0.067207 0.131114 0.040122 -0.031601 0.036021 -0.031781 -0.194530 -0.108067 -0.045114 0.162523 0.032250 -0.014137 0.031316 0.100992 0.018817 0.077956 0.074337 0.026696 0.066761 0.179010 0.049283 -0.020352 0.073245 0.024650 -0.114087 -0.171050 0.039191 -0.051932 0.069677 -0.049828 0.032462 0.073888 0.114450 0.035675 -0.028196 0.020508 0.227224 0.042264 0.066365 -0.152698 0.001442 0.002304 -0.049749 0.062324 0.028703 -0.159251 0.123035 0.086199 -0.165262 -0.048948 0.109872 0.194789 -0.127728 0.038781 -0.022521 0.030258 -0.131222 0.124903 -0.148631 0.068089 -0.116249 0.015702 0.001636 -0.085432 -0.052891 -0.020843 0.032253 0.090909 -0.093871 -0.024403 -0.019717 0.065795 0.109678 -0.105213 -0.049124 0.128985 0.105662 0.246006 0.004550 0.315268 0.237122 -0.031663 -0.004786 0.054319 -0.106490 0.183662 0.068510 -0.153599 0.116408 -0.067063 0.091847 0.055117 -0.087034 0.110227 -0.042670 0.027311 0.221730 0.129735 0.280039 0.140573 0.199684 -0.080685 0.113213 -0.068798 0.034824 -0.072788 0.020402 -0.032823 0.004824 0.175269 0.114801 -0.142848 -0.015484 0.023981 0.184714 -0.027820 0.050370 -0.000525 0.052995 0.031556 0.092981 -0.103452 -0.015130 0.014438 0.017771 0.120886 -0.004692 0.103601 0.038462 0.013077 0.195698 -0.008263 0.017694 -0.183342 0.131395 0.151064 0.180889 -0.199457 0.063687 0.182331 0.030389 -0.021549 0.052753 -0.021446 -0.060245 -0.016733 0.012652 -0.024279 0.254676 -0.043583 0.009021 0.125656 0.004791 0.038057 0.132262 0.002310 0.062854 -0.012910 0.000718 0.041609 0.097619 0.151777 0.157103 0.098763 0.106631 -0.005117 0.140262 -0.038251 -0.035946 -0.059788 -0.098649 -0.095651 -0.064471 0.066659 0.139490 -0.046590 -0.098581 0.175101 0.070459 0.150592 -0.025002 -0.031661 -0.157491 0.089369 0.242888 -0.062404 -0.052495 0.026327 0.049353 0.000744 0.143895 -0.015846 -0.074917 0.060246 0.069098 0.084005 0.070580 0.107068 0.158142 -0.050734 -0.314250 -0.054867 0.044908 0.152568 0.058461 0.009190 0.007382 0.026311 0.013855 0.078855 -0.033435 0.050555 -0.046542 -0.086151 0.205545 -0.039903 -0.113631 0.089617 0.136433 0.023402 0.060799 0.034340 0.085889 0.035592 0.080896 0.140492 0.019676 -0.008392 -0.088499 -0.025043 0.060166 0.087188 0.007811 0.032968 0.039848 0.220268 0.223483 0.159823 0.036377 0.091637 0.155670 -0.008193 -0.039754 0.004970 0.160740 -0.017368 0.145886 -0.000741 -0.064179 0.050871 0.008506 0.038419 0.134123 0.031989 0.156075 0.025232 0.181481 0.318907 0.092773 -0.035161 0.186541 0.025590 -0.057339 -0.014166 -0.111584 -0.186591 -0.033984 -0.029643 -0.093273 0.003290 -0.054553 -0.106948 -0.078195 -0.063110 -0.074102 -0.084823 -0.058587 -0.162617 0.066318 0.002262 -0.076135 0.020715 -0.116811 -0.203580 0.074156 0.015202 -0.164963 -0.204580 -0.033728 -0.052955 -0.138979 -0.128339 -0.149790 -0.045644 -0.179381 -0.108716 -0.232781 -0.073348 0.029072 -0.120451 -0.390431 -0.255910 -0.056557 -0.030920 -0.279802 -0.037229 -0.289257 -0.099275 -0.094232 -0.021729 -0.055518 -0.135609 0.034744 0.021230 -0.031957 -0.085854 -0.049144 0.006698 0.046052 -0.073339 0.009867 0.080423 -0.004724 -0.058029 -0.057129 0.128179 0.043297 -0.089263 0.032209 -0.017798 -0.066050 -0.080610 0.146279 0.023501 0.018876 -0.026925 -0.007479 -0.062059 -0.012814 -0.013970 0.069243 0.028738 0.037492 -0.037888 -0.032391 -0.021728 0.051206 -0.073326 0.027723 -0.007044 0.014437 -0.001930 0.094099 0.021812 0.071249 -0.027229 -0.006604 -0.033227 -0.022169 0.022306 -0.080073 0.053376 0.010108 -0.040684 -0.070445 -0.040415 -0.030697 -0.139629 0.023844 -0.026863 0.041655 -0.026888 -0.008168 -0.007499 -0.027460 0.006013 -0.005846 -0.020197 -0.023948 0.020706 -0.066796 -0.026868 0.079818 0.023417 0.083301 0.049606 0.036967 -0.095441 0.034887 -0.012969 0.005907 0.021977 0.044060 -0.031148 -0.072362 0.027924 -0.010237 -0.102357 0.019253 -0.074433 -0.140264 0.052989 0.111662 0.034589 -0.016987 0.128653 0.069830 -0.090332 0.021113 -0.063083 -0.026102 0.065738 0.007704 0.021424 0.006013 0.043563 0.009792 0.009321 0.002680 -0.085738 0.006598 -0.027089 -0.020375 -0.066295 0.019301 0.060091 -0.082928 -0.071605 -0.089916 -0.102175 0.015162 0.109343 -0.021034 0.034492 -0.003904 -0.009678 0.058580 -0.025669 0.081892 -0.012502 -0.068099 -0.025510 -0.052246 0.011381 0.098266 0.001317 -0.047250 0.027568 -0.027245 -0.025648 -0.004340 -0.094648 -0.029289 -0.006398 -0.108808 -0.041351 -0.108087 0.056936 0.054521 0.040481 0.087702 0.023351 -0.068279 0.033300 -0.168904 0.103421 -0.015423 -0.024590 0.048218 -0.020802 -0.093782 -0.067686 -0.074725 0.051757 0.005253 -0.013959 0.029676 0.011761 -0.009893 0.008933 -0.187981 -0.014259 0.024773 0.045965 -0.009289 -0.038449 0.053557 -0.006481 0.064048 0.018203 -0.043410 -0.088827 0.052411 -0.035804 0.085680 0.004961 0.059649 0.090855 0.001863 0.142398 0.062841 -0.018192 0.015651 0.004995 0.051738 0.071754 -0.014166 0.006702 0.007419 -0.022588 0.030367 -0.090938 -0.023338 0.063669 0.000636 -0.068391 -0.080861 -0.016335 -0.074915 -0.075313 0.078871 -0.051645 0.007256 -0.000281 0.054723 -0.006284 0.042973 -0.057873 -0.079555 0.032531 -0.023068 -0.006466 0.008033 0.036597 0.080672 0.033885 -0.041369 0.027589 -0.068584 0.043416 -0.029432 -0.106608 0.085939 0.130090 -0.046063 0.011928 0.010142 0.051677 0.027319 -0.092689 -0.001786 -0.003555 -0.038436 -0.054951 0.015426 0.064281 0.011679 0.062510 0.002442 0.012863 0.067850 0.087538 0.084080 -0.023293 0.113700 -0.149850 0.049852 0.062688 -0.072405 0.087542 0.039860 -0.056059 0.009936 0.030949 -0.046971 0.010775 0.006644 0.056000 0.025500 -0.065726 0.091276 0.042327 0.008508 -0.033076 -0.009500 0.045570 -0.044335 0.045953 -0.020371 0.050645 0.045925 0.047237 -0.051537 0.045200 -0.010914 -0.075887 0.033347 0.010051 -0.048794 -0.006762 -0.000194 -0.081907 0.112813 0.094425 -0.024873 -0.039997 0.100974 -0.047136 0.081676 0.019983 0.053076 -0.067680 0.084233 0.045854 -0.015203 0.008914 -0.023050 0.062515 0.091299 0.006480 -0.012786 -0.033278 0.060455 -0.109145 -0.065261 0.041041 0.133337 0.071482 0.144968 0.034899 -0.027740 0.040929 0.075855 0.020679 0.003675 -0.029026 -0.061594 0.058754 -0.045882 -0.066952 -0.056746 0.011440 0.028216 -0.087341 0.043368 -0.053329 0.072659 0.110543 0.070507 -0.024535 -0.039260 -0.032804 -0.125932 -0.035215 -0.026421 0.027606 0.053844 -0.001567 -0.047957 -0.085404 0.028282 0.002760 -0.025700 -0.010541 0.095438 -0.046439 0.032974 -0.105974 -0.148599 0.054180 0.018789 0.002647 -0.007125 0.017535 -0.099989 -0.095487 -0.021388 -0.036599 0.082365 0.012212 0.002634 0.006439 -0.037453 0.092779 0.096233 0.066190 0.021307 -0.033271 0.017456 0.005447 0.040725 0.075693 -0.013067 -0.112553 0.074228 -0.004582 0.037866 -0.043986 -0.148639 0.021485 0.003052 -0.043934 0.031579 0.117443 0.007726 0.067398 0.002489 0.066394 0.035944 0.018574 0.003581 -0.055517 -0.034757 0.066802 0.069278 0.054618 0.063894 0.052259 -0.014129 0.026090 0.017160 0.015518 -0.005853 -0.006097 -0.018107 -0.104559 -0.029016 -0.013802 0.012243 0.095973 -0.087990 0.020827 -0.000013 0.053852 0.028107 -0.117542 -0.142709 0.062778 -0.008839 -0.004474 -0.018820 0.032542 -0.031557 0.061069 -0.134338 -0.000723 0.046649 0.006062 -0.011552 -0.012638 -0.024301 0.071159 0.024517 0.035341 -0.016736 -0.011251 -0.045522 -0.028407 0.108144 0.067909 -0.017626 -0.085458 0.078859 -0.054699 -0.051149 -0.035110 0.055180 -0.026122 0.083378 -0.042518 -0.022024 -0.065138 -0.063392 -0.025039 -0.052518 0.051774 0.043338 -0.039076 -0.090937 0.037529 0.045811 -0.043843 -0.026180 -0.027585 0.018012 -0.106100 0.079480 0.044413 -0.030922 -0.014396 -0.012411 -0.035975 0.091544 -0.026689 -0.093325 0.019422 -0.002553 -0.090420 -0.031526 0.028440 0.093162 0.022898 -0.061895 -0.017414 -0.014487 -0.012996 0.061346 0.086169 -0.012907 0.056171 0.091167 -0.017000 -0.016269 -0.006428 -0.064564 -0.011685 0.039160 -0.018706 0.028521 0.026327 -0.028163 -0.059320 -0.074088 0.041674 -0.013335 0.017307 0.030110 -0.000773 0.052905 0.082644 0.047462 0.027858 -0.036101 0.033813 0.007032 -0.043483 0.000842 -0.050918 0.021038 -0.044532 -0.113326 -0.016054 0.002591 0.009155 -0.092462 0.075788 -0.125593 0.052525 -0.074023 -0.040159 -0.004091 -0.109581 -0.077518 -0.133422 -0.026384 -0.097375 0.022168 -0.171902 -0.039718 -0.054186 -0.069942 -0.050022 -0.046981 -0.043959 -0.163597 0.006796 -0.027827 -0.049716 -0.055686 0.051653 -0.075378 -0.117689 -0.085854 -0.063907 -0.008266 -0.002853 -0.100030 0.074011 0.034664 0.018219 -0.098143 0.006937 -0.082632 -0.114452 -0.037558 0.070041 -0.134370 -0.098784 -0.023606 0.043028 0.022948 -0.020798 0.048988 0.010512 0.044493 -0.054412 0.048936 -0.030129 0.325746 1.127870 0.542136 0.328451 0.686514 0.041178 0.275512 2.727803 1.012584 0.635372 -0.367190 -0.103279 0.987826 1.221339 1.438096 0.543703 1.081030 0.858904 1.346644 2.640344 0.014198 0.000308 0.310312 -0.310091 0.006847 0.690160 0.251760 -0.034548 0.557962 -1.415056 0.352618 -0.453226 0.093279 0.659192 2.957477 0.725066 1.008156 2.622442 1.796471 2.269140 4.110021 1.457240 0.015393 0.064751 0.451031 0.100007 1.160626 0.266163 -0.441866 0.387654 -0.684252 -0.150787 -0.456887 -0.121117 3.472732 1.685150 3.007610 0.711845 4.245570 1.240871 5.357220 4.661309 1.310836 -0.095718 0.268531 0.048485 0.056446 -0.359033 -0.160042 -0.647457 0.343841 -0.071765 -0.278290 -0.334231 0.072643 2.186379 1.821372 2.010295 0.923400 1.950789 1.571196 3.577480 3.457499 1.537226 0.039067 0.061271 0.182251 0.022651 0.208476 0.512496 -0.091286 2.822402 0.073433 0.971515 0.381342 0.054517 3.881023 0.447424 2.186478 1.517515 1.231102 2.148715 4.620809 2.211966 1.634665 0.430424 -0.581919 -0.138682 0.462315 0.380105 0.045579 0.341699 -0.221945 -1.323406 0.331431 -0.381517 0.627736 -0.322407 5.244677 1.154333 2.430554 1.519247 2.983275 1.285894 6.153111 1.554257 0.860912 -0.625661 1.092968 0.299345 -0.441622 -0.649934 0.395230 -1.497649 1.133742 -0.211535 -0.492687 0.279614 0.314853 4.859299 1.859714 1.297793 4.522901 1.935287 1.705707 6.192125 1.311730 -0.324947 -0.186140 -0.833987 0.028001 0.278168 -1.323773 -0.348881 -1.210367 -0.285354 -0.267067 -0.781505 -0.682573 1.506008 4.084377 1.694143 4.497446 5.607701 4.693499 6.014439 6.262051 4.372165 0.269921 0.796066 1.128370 0.211865 0.216926 -0.044167 0.585901 0.221476 0.821357 -0.055351 -0.268736 0.131611 1.755539 2.612114 1.609404 2.280317 2.989704 2.863821 5.066855 3.824440 1.997726 0.327314 0.656594 -0.360161 -0.121646 1.758334 -0.532820 0.709183 -0.115465 -0.523836 0.318110 -0.873258 0.043092 0.769361 0.472692 0.335900 0.851543 1.195114 1.452279 2.965456 2.810311 1.288426 0.907956 0.520430 0.788725 0.973980 -0.078801 0.419192 0.807004 0.111371 1.166134 0.794262 -0.410573 0.095159 2.336043 2.638129 2.783974 2.636334 -0.898652 2.943527 4.125517 5.297501 1.855820 0.970800 -0.750330 0.033303 0.112626 -0.778353 -1.048885 -0.045174 -1.162225 -0.233001 -0.219464 -0.886556 1.487546 -0.318150 5.277144 3.478047 4.202819 0.737676 3.812370 3.942973 6.813415 3.401519 -0.124961 -0.276022 -1.919971 -0.087394 0.099627 -1.632450 -1.494905 -0.159951 -2.407517 -0.755068 -1.101113 0.471595 2.612952 1.723705 4.824585 4.677311 1.708633 5.151676 5.217198 6.597892 3.575226 0.183375 -1.329744 -2.638322 -0.288422 -0.893449 -2.231769 -1.478639 -0.268469 -1.837875 0.425635 -0.281733 1.247433 2.937917 3.155131 3.437574 4.855574 1.720688 4.018618 6.114133 5.809175 2.317601 0.021308 -2.842017 -1.273347 1.541168 -0.097646 -1.152012 -0.903892 -4.263553 0.176504 -0.813658 -0.592662 2.065567 1.435110 1.389617 3.336541 2.298438 -0.792015 2.973906 4.766355 3.374658 1.689560 0.986627 0.371238 0.997111 1.591508 -1.043914 0.683521 0.798373 0.179797 0.632769 0.367749 0.084213 0.722597 1.429393 1.477020 1.851890 2.048331 -2.287210 0.437241 3.326642 2.749360 0.587308 0.215146 0.393376 0.107576 1.048314 -1.486895 0.085898 0.727845 -1.416063 0.523302 -0.347555 -0.511837 -0.115645 1.552238 2.449689 1.607172 2.354675 -1.991294 1.424889 3.493481 3.889437 0.439571 0.290626 -0.126315 -0.446057 0.172128 -0.120028 -0.200977 0.373374 -0.057174 -1.307374 1.156920 0.231622 1.276613 1.823150 3.191101 2.379157 4.056687 -1.924903 1.391578 4.668098 4.618519 0.606400 -7.924723 -7.208875 -7.786595 -6.842447 0.095294 -9.886178 -7.142858 -0.492050 -5.173167 0.166414 0.136245 1.632295 3.315145 4.379868 2.804302 3.156536 7.086753 2.313483 4.546342 6.214841 0.878699 -5.622485 -4.776690 -6.495837 -1.385410 0.063058 -8.254418 -8.110738 -6.970106 0.773099 -6.028676 0.701658 2.746001 2.746276 3.393197 1.564174 2.070768 6.347762 1.507605 3.700227 5.290578 -0.050897 0.638366 1.154643 1.063417 0.903635 -0.330263 0.787818 0.740632 1.590856 -0.225207 -0.039896 0.142473 1.289140 3.311129 -1.414786 2.723953 2.090036 -3.519694 0.296557 3.903726 0.077136 -0.127163 1.666560 -0.714635 1.209939 2.105711 0.555990 0.996103 0.414142 -0.503820 -0.283080 -0.083581 -0.340045 1.790459 1.852839 0.137646 1.358256 1.290903 -3.213229 0.169624 1.779551 1.416790 0.028387 -0.249719 -5.050726 -0.069663 -0.045696 0.198698 -0.761594 0.907399 -4.691260 1.163413 -0.065591 -0.089371 1.335439 2.736643 0.414183 3.064313 1.616442 -4.870992 0.399491 3.823526 2.656294 0.099150 -5.827799 -8.331823 -8.125278 -6.667724 0.240262 -7.513455 0.299323 -7.372055 -0.100947 -0.056091 0.476881 2.981597 2.310928 3.001973 4.263138 2.236180 5.388306 0.301516 2.453419 5.559981 0.081787 0.993519 1.320365 0.454612 0.464858 3.708668 0.567186 2.007827 1.505944 1.950624 0.055172 1.609507 -4.983823 -2.602540 -6.856264 -4.892163 -7.183511 14.707348 -0.404530 -2.023670 -1.760159 -0.124891 1.238119 0.243768 -0.230805 0.638543 0.158591 -0.138199 -0.640959 -1.688260 -0.448991 -0.751727 -0.274777 -0.521917 -0.441766 -0.006893 0.393756 -0.211724 -1.497129 -1.016628 -1.071635 -1.167813 -0.224497 -0.230293 -1.025277 -0.737625 0.229592 -0.633307 -1.109274 -0.148254 -0.091122 0.925900 -0.296579 -0.649587 0.551762 1.549476 1.312436 -6.879918 0.458464 -0.856291 0.071502 -0.082370 0.924513 0.060235 0.397904 -0.324070 -0.420393 -0.586284 0.093232 0.163668 0.270132 -0.110748 -0.098061 0.662674 -0.059741 -0.627578 -0.146822 -0.461831 -1.193549 -0.486157 -0.119387 -0.261137 0.026771 0.671328 1.030769 0.041013 10.508023 3.234467 2.188371 5.358011 2.272501 3.152918 -2.853861 0.024559 3.637120 5.085202 2.710838 2.436767 4.233997 4.869243 2.430778 3.435344 2.678029 0.105858 1.293171 1.454699 0.273195 11.837215 10.257099 3.308613 5.045371 9.712142 3.697158 -2.181347 0.056602 3.222399 3.733005 3.284402 4.042524 0.899299 5.468086 3.588390 2.275464 2.206632 0.047695 0.566004 0.677354 0.020999 10.097835 3.365954 8.813428 2.195288 3.455614 3.154891 -3.353549 -0.034036 2.450607 4.044951 3.374123 8.155994 2.961981 8.284858 6.421536 4.108527 4.670789 0.149666 0.726146 0.843693 0.121507 9.158181 3.904831 3.349720 6.109046 11.489795 3.416724 -2.106466 -0.042039 4.420305 2.192420 2.736164 3.234559 1.298347 7.496385 2.271685 3.462866 2.082120 -0.068246 0.905607 0.985189 0.120756 4.902271 3.154865 1.762357 7.838958 2.712551 4.049838 -2.043225 -0.017167 3.143986 2.648088 2.974015 3.827158 1.626830 12.092708 2.470943 1.307303 2.544047 0.263086 1.032344 1.867603 0.602361 10.520613 9.273256 5.424418 8.181595 4.977761 9.182050 -3.226025 4.222181 4.876013 3.822023 3.757658 3.474221 1.944673 2.768679 2.286841 1.549786 1.148352 0.257055 1.250188 1.476593 0.379758 16.369591 7.584383 8.625136 4.835635 4.705452 3.171180 -3.675747 3.780802 2.355638 3.049083 3.321396 4.230302 1.058772 2.726005 2.052533 0.778822 2.368283 0.176143 1.036605 1.933537 0.331177 4.434588 12.761853 8.656285 2.596890 13.465223 2.189808 -4.841184 3.640901 8.070089 1.935954 5.853022 2.795447 1.149630 2.345228 1.643482 1.655342 1.801298 0.172290 1.243675 1.825423 0.671212 10.153520 8.975630 10.728464 5.832209 4.725254 3.444631 -3.723861 4.124164 2.817838 5.162864 4.870001 4.738100 3.174047 3.045456 4.786982 1.949834 3.289449 0.145327 0.816563 1.407570 0.529016 9.659823 5.194182 3.916850 9.944441 5.318883 6.897339 -2.185680 3.925988 5.041148 6.002846 2.820622 4.547572 2.826839 4.553197 3.249359 1.376514 1.467536 1.062633 1.959885 1.642454 2.542049 5.617607 4.668009 4.866483 8.493848 2.556561 12.029872 -2.369138 4.027208 1.753702 6.644778 4.003306 5.036939 8.462073 1.366277 0.648676 1.566873 0.056163 1.426569 1.452765 3.580629 1.425081 3.688548 12.025709 9.001529 4.962955 7.012943 4.035758 -3.355100 2.566447 8.921299 4.540924 5.722361 5.989011 4.626435 1.411892 2.632568 0.908235 0.975845 1.351967 1.260380 4.423884 2.210187 5.284132 11.722321 7.864485 4.797686 5.204366 2.857866 -4.855483 3.647786 4.255876 4.009062 11.099748 8.707478 12.993848 0.891321 3.863209 1.492738 0.939517 1.160551 2.309791 2.060955 1.008245 2.619695 6.981263 9.693759 4.458397 7.999531 3.068020 -3.651145 2.952492 8.385557 4.521707 4.524134 8.288030 7.311218 0.918083 1.703335 0.830660 0.964903 0.912310 2.177076 1.805998 1.418179 8.365079 8.181813 6.547278 9.018962 2.479640 6.877501 -2.795858 6.681083 1.991205 5.546376 5.090375 3.837100 7.681064 1.100114 0.838064 1.076863 0.604039 3.604273 3.616507 3.933874 8.873135 3.604009 6.234891 5.774986 6.879661 3.558516 7.548609 -2.455018 5.521732 8.351116 9.127303 3.879430 3.793588 5.284836 0.624899 2.103168 1.140736 0.129527 4.898721 2.307458 2.031225 4.903811 1.896055 5.714309 6.717314 4.304117 2.539646 2.570219 -2.941105 3.399278 1.931628 6.536239 6.676880 4.520615 7.139408 0.398149 1.421324 0.832948 0.086392 4.234118 3.530960 6.531704 3.941226 0.567343 5.530965 8.227289 3.261304 7.758184 2.647024 -4.743713 2.375592 9.474386 3.855552 7.439015 9.941536 11.707578 0.301154 0.618470 0.192613 -0.130603 3.199606 2.354122 5.038914 5.347311 1.330656 7.653083 5.176292 3.407170 2.985152 5.000455 -3.610186 4.469682 3.104373 5.389662 6.763415 8.612803 9.132136 0.276893 1.656885 1.019051 0.196747 3.465064 4.154371 2.824398 5.963263 2.918712 8.496576 5.006674 8.528170 3.621725 5.784789 -2.441946 6.997181 6.775643 9.888002 5.814870 6.613375 7.650540 0.672897 2.233775 0.696700 0.212267 3.239048 5.742405 1.448068 8.755156 1.628354 3.131719 1.995791 6.550933 2.084814 0.041421 -2.647286 2.507977 2.521034 7.552365 4.675732 3.552579 9.802289 0.158277 0.857387 0.722644 -0.060243 3.344015 7.053700 7.812234 11.884918 1.412950 5.400586 2.094900 6.970970 2.977089 -0.041564 -2.419420 4.081593 7.750293 6.377804 3.295426 8.171621 6.814708 -0.045328 1.031935 0.951841 0.063720 4.376169 8.017659 4.964306 6.896646 1.884033 6.239647 3.063470 6.400500 3.133052 0.003359 -4.520474 2.498918 3.421866 7.153869 12.523822 9.366704 14.045284 -0.035763 0.639714 0.836175 -0.000210 3.664243 5.612976 6.551935 4.855163 1.207919 1.898125 2.410041 5.797202 3.737193 -0.098862 -2.773405 2.285842 5.233318 8.435537 3.265735 9.118340 9.164137 0.081736 0.878262 1.232588 -0.013796 2.460615 7.491469 2.358114 9.444505 1.004159 3.277999 1.940213 7.903232 2.284633 0.015854 -2.379558 1.818286 2.464444 5.290072 3.002012 7.803833 7.183956 0.055114 0.851262 0.954282 0.053527 8.516342 6.329349 5.663908 9.976829 6.387738 12.151447 7.080855 5.506579 8.614991 7.480110 1.531869 0.638616 0.391191 0.711196 0.985230 -1.214327 -2.509360 -0.767054 -2.058862 -0.042507 0.573602 -2.411280 -0.724913 -1.388273 1.818464 -0.519313 -0.898664 -1.105912 -1.400773 -1.203755 0.756123 -0.344763 -0.383294 -0.309753 1.017686 0.439994 -0.250772 -2.275577 -1.522953 1.267440 -0.634273 -1.779626 -1.913697 -1.235029 -0.664145 -0.167854 -0.459788 -1.198083 -1.314092 0.319396 -0.822329 -2.758615 -2.042113 -2.199762 -0.046465 0.639442 -1.780000 0.434651 -0.768833 0.502491 -0.039893 0.071182 0.106943 0.009518 -0.073022 -0.027549 0.006560 0.018448 0.018163 -0.005216 0.032201 -0.051631 -0.138945 0.147350 0.017760 0.061091 -0.052168 -0.060211 -0.087884 -0.105452 -0.118057 -0.011003 0.032192 0.062707 -0.028541 -0.049380 -0.054307 0.059764 0.031536 -0.094927 -0.038691 0.065962 -0.058890 0.048284 0.051318 -0.051143 0.005832 -0.060035 -0.095801 -0.050094 -0.072802 -0.044242 -0.002503 -0.019853 -0.107533 -0.005913 0.000630 -0.080485 -0.054924 -0.020292 -0.000333 -0.084304 -0.069611 -0.140954 0.070231 -0.025445 0.035713 -0.038683 -0.000125 0.007434 -0.078906 0.057254 -0.108366 0.010317 -0.030256 -0.047959 -0.098248 0.004925 -0.031350 -0.122983 -0.115352 0.069111 -0.019274 0.075644 0.002614 0.015522 0.088908 0.012274 -0.110030 -0.035259 -0.084850 0.001847 0.113592 -0.015342 -0.008298 0.016797 -0.021075 -0.038406 -0.050643 -0.033705 0.092444 -0.005837 0.042736 0.068618 0.014554 -0.027660 -0.126992 0.046453 0.060850 0.021333 -0.043682 -0.008804 0.013236 -0.120958 0.011678 -0.111220 -0.047771 -0.039458 0.008753 0.074733 -0.026494 0.009054 -0.018065 -0.001712 -0.041858 -0.077458 0.017187 -0.074446 0.074011 -0.128036 -0.051944 0.013361 -0.041913 0.048735 -0.030113 -0.023559 -0.016211 0.144389 0.089341 0.047035 -0.103320 0.011589 0.025266 0.110203 -0.048984 -0.005944 -0.079688 0.007625 -0.022712 -0.020227 0.000300 -0.070596 0.056921 0.075555 -0.102233 -0.053800 0.006927 0.081702 -0.002523 0.045576 -0.039257 -0.027746 0.017941 -0.095326 0.018861 -0.053672 -0.054731 -0.149759 0.120289 -0.018061 -0.024381 -0.029986 0.051656 0.014321 0.079096 0.074555 0.025431 0.021018 0.076010 0.011468 -0.101477 0.040392 -0.059956 -0.001926 0.025071 -0.050618 -0.004700 -0.090332 -0.073018 -0.064538 -0.018406 -0.041481 -0.000026 0.115474 -0.059312 0.000923 -0.008877 -0.013016 -0.007185 0.051229 -0.129129 -0.025350 -0.063918 0.025535 0.023145 -0.097527 0.080111 0.053117 0.050486 -0.040714 0.060720 -0.067290 -0.016471 0.020283 -0.015832 -0.108314 0.033097 0.088185 -0.002981 0.011893 -0.032968 0.091479 -0.072430 -0.091205 0.005486 0.050188 -0.048863 0.017151 -0.010034 -0.017743 -0.042708 -0.048775 0.068281 0.021662 -0.032797 -0.035459 -0.106606 0.004076 -0.053371 0.027017 -0.052687 -0.051945 -0.064683 -0.049178 0.001700 0.030646 -0.031170 -0.023152 -0.049348 -0.028161 0.094442 0.023162 0.002042 0.069083 0.009494 0.063942 -0.035009 0.052803 0.011490 -0.019798 -0.012292 0.045775 -0.088848 0.006832 0.092090 0.041434 0.032837 -0.170186 -0.065866 0.110964 0.075806 0.033257 -0.105463 -0.064120 0.017895 -0.055390 0.069404 0.085486 0.072021 0.013709 0.002746 -0.071409 0.010002 0.041841 -0.048483 -0.089932 0.003537 0.026539 -0.029437 0.024447 -0.060852 0.125856 0.008035 0.042708 0.007959 -0.108036 0.058290 -0.065175 0.034779 0.094280 0.048096 -0.003761 -0.026025 0.069802 -0.111088 0.051190 0.115493 -0.018156 0.013407 0.080648 -0.024305 -0.031080 -0.079009 0.013142 0.052778 0.048759 0.064146 0.020493 0.006812 -0.049890 -0.078879 -0.008331 0.018685 -0.067145 -0.006649 0.034857 -0.047136 0.001938 -0.108291 0.048288 -0.145125 -0.000533 0.030851 -0.036895 0.030061 0.067948 -0.095221 -0.098680 -0.062087 0.001388 0.015899 0.029169 0.052227 0.083592 -0.029808 -0.010843 0.019758 -0.007478 -0.008054 -0.128626 -0.004238 -0.037795 0.031956 -0.030935 0.016621 0.018499 -0.051430 -0.035102 -0.016223 -0.011681 0.034303 0.032029 -0.058997 0.092429 -0.069250 0.066917 -0.051895 -0.030465 0.003266 -0.031410 -0.040492 -0.008738 -0.028178 0.101924 -0.043714 0.049781 0.079841 -0.020481 0.114273 -0.006648 0.053286 -0.004891 0.067221 -0.028533 -0.042452 -0.101347 -0.123677 0.030793 0.040253 -0.030479 0.000711 0.014855 -0.045817 0.091015 -0.063722 0.127610 0.019369 -0.009965 -0.094308 -0.008318 0.015627 0.158981 -0.033915 -0.031528 0.014573 -0.002496 0.037376 -0.044161 0.048104 0.090640 0.069022 -0.046147 -0.038431 -0.015473 0.074491 -0.026929 0.000937 0.028776 -0.044796 -0.093396 0.025929 -0.029799 -0.009930 -0.032980 0.002501 0.044736 0.075611 0.057833 0.028301 0.029617 -0.016605 0.000729 0.052375 0.075285 -0.033065 0.027935 -0.088384 -0.031671 -0.065373 0.007214 -0.062648 -0.011955 0.070430 0.021416 -0.042127 -0.055015 -0.093682 -0.030395 0.069806 -0.016394 -0.037666 0.040223 0.008467 -0.063722 0.048032 -0.066137 -0.084436 0.058937 -0.054198 -0.047661 -0.122894 -0.052560 0.055912 -0.007580 -0.013035 0.052658 0.015087 0.070637 -0.052896 -0.075434 -0.032097 0.003889 -0.002845 -0.043901 -0.000568 0.140754 0.108868 -0.112324 0.028030 0.002993 -0.073248 0.042823 0.021477 -0.031211 -0.009070 -0.023512 -0.004582 0.070170 -0.041751 -0.005206 0.075087 0.048670 0.135626 0.009240 0.069093 0.001688 0.042937 -0.089803 -0.020957 0.054136 -0.046165 -0.079706 -0.122586 -0.036802 -0.069702 -0.035620 -0.132500 0.058134 -0.076280 -0.023649 -0.015919 0.094236 0.004356 -0.093471 -0.009494 -0.035262 -0.058771 0.093351 0.050782 -0.083508 0.064855 0.147036 0.015402 -0.047688 -0.096768 -0.148572 0.011715 0.021126 0.047365 -0.031365 0.082525 0.055627 0.029652 -0.039881 -0.073544 -0.011610 0.209647 -0.036074 -0.032482 -0.032603 -0.031609 0.059995 -0.003654 -0.051404 0.042964 -0.017431 -0.090531 0.024801 -0.052125 -0.004140 -0.057624 0.062453 -0.010134 -0.061195 -0.037815 0.099355 0.083797 -0.024031 -0.031805 -0.052615 -0.066890 -0.055196 -0.040252 -0.066768 -0.060381 0.021366 -0.088113 -0.092823 -0.109260 -0.072334 -0.096927 -0.172195 -0.100490 -0.013758 0.078641 -0.037535 -0.071641 0.086046 -0.089790 -0.036270 -0.033570 -0.183206 0.034720 -0.104654 -0.066142 -0.162704 0.037029 -0.096137 -0.017904 0.073196 -0.108036 -0.005615 -0.014046 -0.052829 0.055214 0.211420 4.880504 6.636602 0.969070 17.949396 14.616000 13.440850 15.968013 12.589873 11.534966 -2.642530 -0.036486 4.264194 6.467497 1.641663 6.343507 15.529471 9.134797 2.568939 4.686947 5.190682 0.413965 6.464869 6.501548 1.105329 20.798220 16.973981 13.333805 15.818036 15.229763 9.687355 -2.152680 0.038795 5.160059 4.265453 3.162617 4.917340 8.615499 9.147063 2.289802 1.810257 5.764191 0.247538 6.461592 6.244738 0.735858 18.343928 16.594332 15.333517 12.323411 14.627607 9.961174 -3.551444 0.047589 4.618400 3.742130 4.580268 7.816707 17.277789 10.299675 5.202511 3.348364 7.184990 0.261844 6.197681 6.343490 0.600777 9.929134 19.903332 14.442823 17.127426 16.114659 10.427539 -2.735882 0.042857 6.804614 6.082011 5.925723 15.269431 17.409396 18.988868 7.602679 4.180678 12.948567 0.142718 5.616918 6.225260 0.640612 6.217096 15.264610 13.619388 16.829637 12.888398 10.917119 -3.505011 -0.109963 6.468541 8.890910 7.924889 14.484695 18.400804 19.447315 6.771790 7.340005 11.018873 1.310093 6.929142 7.407084 3.212590 20.352337 14.476862 13.147609 17.649624 15.162710 13.804164 -2.590642 13.511960 6.678219 6.435778 6.648602 4.264040 10.467620 3.841562 1.338352 1.212191 3.212314 1.913668 10.131005 9.451804 3.441834 24.548838 18.962670 15.516824 14.462393 14.582731 11.919369 -4.528815 4.439060 7.044722 3.313247 6.516351 3.014047 2.140205 1.903029 0.525394 0.006779 1.147696 2.196222 8.985329 10.215040 2.911175 25.452046 18.626380 17.526344 14.998338 16.073658 10.143725 -5.965991 6.684971 7.308996 3.276457 8.810133 8.509856 8.890182 4.924882 1.972542 0.223635 5.221467 1.635476 8.886716 8.985963 3.002467 13.475223 21.022871 16.388877 15.132939 11.656864 11.890187 -4.784588 10.200892 6.855220 4.614935 12.049288 13.737181 13.820023 11.582717 5.724096 2.211258 6.034255 1.497022 8.123166 9.548661 2.992064 6.341075 17.337739 12.965283 20.048654 16.996393 11.922992 -2.724561 15.600870 10.128537 6.193224 12.297121 15.246702 16.940214 15.527285 6.426676 2.642240 8.612209 4.478968 6.653885 9.796639 13.108063 21.588666 18.679058 15.237299 14.813724 13.027616 13.327932 -3.472522 9.230182 7.029333 9.963894 8.493082 5.536751 17.144466 2.184291 1.871817 0.792953 0.723658 7.000885 9.085686 12.183073 9.510860 24.029409 19.468824 16.466021 13.445698 18.796451 12.055936 -4.943056 4.708522 12.831417 4.303834 8.349256 5.644619 10.520872 0.454026 1.519819 0.197522 0.251221 6.392216 8.640348 17.878524 7.458024 25.516708 16.499323 14.889478 12.140985 15.765295 10.241299 -6.848556 7.041885 10.658859 4.640214 12.671522 10.504656 23.926761 1.569038 1.867790 0.662771 1.037359 7.062789 11.609508 16.837677 8.801011 12.795034 19.666052 17.412185 15.550943 17.704547 10.494696 -5.139860 9.730999 7.129737 6.942946 10.568675 11.447354 16.689005 2.851562 1.673275 0.859301 2.171747 5.840727 10.103974 10.382875 10.022934 9.547810 17.064584 14.616795 17.035811 11.168591 12.517232 -3.986127 13.264435 7.366328 8.812444 11.854140 12.606532 19.743489 6.185727 3.436525 3.239060 3.001758 11.363233 11.056958 10.475540 20.144191 8.751380 20.289205 14.230631 13.704357 12.666321 13.946553 -4.026640 9.229916 10.365824 11.594119 11.962932 8.800115 14.804595 0.729727 3.192773 0.967378 0.440406 16.167975 11.367528 17.647642 20.647784 8.645652 23.157959 18.622612 13.656068 13.543733 14.486279 -5.990824 7.792128 5.887218 6.797980 11.288967 9.157241 11.393714 0.318608 3.050352 0.384249 0.172839 16.363621 12.562159 22.715856 16.843614 10.404029 22.074570 17.505045 15.031784 14.949540 11.296505 -5.278796 6.165849 9.754226 7.488483 10.174723 7.828456 15.714981 0.508473 0.701210 -0.013334 0.321821 17.128913 16.525837 16.201176 18.887843 5.626439 22.914467 20.256048 16.415774 12.397695 14.296575 -5.110530 7.228255 3.051979 8.062771 10.520692 11.874914 13.632407 1.069043 1.318468 0.940279 0.303898 11.321426 14.573329 12.866264 16.440357 4.505635 19.600743 13.735894 17.676157 11.774587 13.538422 -3.985572 11.137818 4.568381 13.841303 9.967597 13.720865 14.975937 2.766404 2.232577 3.002700 0.940245 13.147451 15.801775 13.288536 20.089457 3.624007 16.668555 11.804044 15.207095 12.429595 -0.022821 -4.468691 8.505879 9.688027 14.007324 10.219070 9.435081 15.163188 0.069578 3.251630 1.853100 0.098801 14.651123 19.200228 16.890892 19.019896 5.278880 18.745485 12.299906 17.543497 16.575538 -0.023886 -4.710363 7.690895 12.615045 8.304499 10.416501 10.377530 15.753767 0.115140 2.131576 0.644069 0.071599 17.015433 20.662410 16.052565 18.655101 7.193962 16.851205 11.998088 14.904531 11.213476 -0.030166 -4.859837 5.481124 9.791874 9.884560 12.968265 12.285845 20.171659 0.174466 1.975433 0.400564 -0.105284 15.855721 20.752967 17.851387 18.147971 3.661984 18.524842 11.827121 17.549414 14.031125 0.032995 -3.826818 5.106675 6.326287 10.755752 9.250873 12.368411 13.902432 0.246818 1.316554 1.371655 0.218782 13.308441 23.119164 10.683357 15.833885 2.092105 16.632884 10.764365 17.974909 10.110199 -0.042397 -4.352187 5.737887 6.057100 12.471443 11.445252 12.489860 14.362160 0.699210 1.988882 3.457814 0.149920 18.580195 9.867962 1.735951 10.850694 4.729506 18.177031 12.479597 8.046561 14.733505 17.421464 -0.222738 -5.006857 -3.502673 -3.162522 0.242185 -5.288865 -7.997867 -5.642141 -6.105224 -2.670410 -1.546324 -4.877649 -3.942455 -4.093541 -1.178176 -2.778453 -3.613808 -5.180334 -4.181109 -2.443694 0.003773 -2.481911 -1.933910 -2.905183 0.017752 -0.327990 -2.211520 -1.347548 -1.473715 -0.356150 -1.644850 -0.770957 -1.174678 -0.727088 -0.734751 -0.460817 -1.495677 -1.484942 -1.864138 -1.063252 -1.528004 -1.591093 -2.220671 -1.335279 -0.521245 -0.305335 -2.010767 -1.390830 -1.508241 -0.090214 0.006359 0.058904 0.111671 -0.103946 0.291132 0.149275 0.069847 0.047118 0.200721 0.138571 -0.104638 0.029842 0.012090 0.197761 0.188734 0.102063 0.591149 0.329209 0.014462 -0.094140 0.176403 -0.113829 0.261175 -0.049568 0.097007 0.280704 -0.026711 0.040591 -0.029809 0.191523 0.030818 -0.519812 0.020945 0.159970 0.077607 0.135222 0.530319 0.463587 0.398056 0.104951 0.125799 0.214088 -0.025868 0.065536 0.130497 0.016984 -0.030470 0.145265 0.032899 0.410029 0.410720 0.238372 -0.362810 -0.054635 0.151559 0.189243 0.514257 0.088282 0.497651 0.251037 -0.132298 0.328224 0.210144 0.048848 0.180649 0.201703 0.090523 0.691416 -0.056499 0.058865 0.206482 0.306461 0.192745 -0.571193 0.024799 0.267563 0.155152 0.296293 0.414397 0.249061 0.378942 0.338923 0.337582 0.072904 -0.050374 -0.072132 0.165366 0.042792 0.207662 0.118845 0.023078 0.264378 0.180805 0.207375 -0.327787 -0.099743 -0.121003 0.290162 0.143890 0.080595 0.748383 0.031099 0.051588 0.411785 0.201354 0.136431 0.380229 -0.008152 0.082145 0.199440 0.075119 0.138002 0.375838 0.168395 0.134164 -0.054733 0.622616 0.262122 0.234919 0.244049 0.186768 0.507878 0.169693 0.328611 0.236333 0.153685 0.080555 0.286321 0.156472 0.038174 0.665302 0.336021 0.224417 0.278906 0.010659 0.124839 -0.510317 0.217646 0.048758 0.572603 0.147984 0.144995 0.299166 0.097742 0.124161 0.396586 0.293265 0.214625 0.175961 0.200518 0.167290 0.294063 0.043957 -0.010923 0.478263 -0.046712 0.071050 -0.169624 0.170297 0.264822 0.040708 0.586947 0.251722 0.561202 0.423486 0.129914 0.230853 0.219207 0.082661 0.076766 0.037283 0.142719 0.144323 0.545368 0.157104 0.060650 0.045216 0.068577 -0.120323 0.211119 0.238575 0.474026 0.066598 0.079552 0.315077 0.115002 0.123370 -0.172247 0.316706 -0.007912 0.133582 0.114148 -0.073504 0.202988 0.081327 0.150547 0.341868 0.188988 0.136009 -0.210600 0.079170 -0.012044 0.191267 0.197821 0.208415 -0.075779 0.235511 0.320012 0.160997 0.211216 0.166056 0.128144 0.100466 0.149685 0.298901 0.813650 0.292255 0.396340 0.139738 0.304108 -0.456040 0.308276 0.019708 0.341877 0.145256 0.720985 0.541320 0.239763 0.405370 0.089787 -0.020154 0.031202 0.199800 0.253300 0.277382 -0.160607 0.508528 0.331423 0.065004 0.275859 0.257711 -0.134702 0.306056 0.109790 -0.023962 0.197817 0.281692 0.092458 0.090956 0.305319 0.042273 0.262699 0.195142 0.007293 0.241879 -0.050731 -0.048351 0.281538 0.439747 0.368693 0.358406 -0.140952 -0.277827 -0.030515 0.099662 -0.083563 0.252842 0.279965 0.052332 0.030044 0.292061 0.092608 0.083043 0.268609 0.241396 0.119172 0.251960 0.269290 0.036638 0.281413 0.269445 0.253419 -0.046375 -0.352167 0.230453 0.398435 0.520867 0.419193 0.382570 0.558795 -0.027489 0.242131 0.077937 0.088034 0.005016 0.173626 0.176254 -0.103637 0.425778 0.784522 0.166083 0.306363 0.467006 0.474646 -0.772809 0.535869 0.475358 0.179872 0.088680 0.123286 0.150800 0.133216 0.178743 0.105597 0.136232 0.277300 0.288637 0.407771 0.228009 0.105981 0.145720 0.101961 0.061384 0.201976 0.142227 0.127677 0.340777 -0.029991 0.137383 0.137746 0.421766 0.252993 -0.031128 0.165905 0.034295 -0.090597 0.949845 0.353259 0.329563 0.557112 0.102598 -0.034754 0.001455 0.284233 0.089026 0.505714 -0.251475 0.163027 0.252516 0.048721 0.083718 0.234571 0.065971 0.009571 -0.006110 -0.091882 -0.003065 0.256539 0.234052 0.189427 0.490899 -0.100107 0.387462 0.053739 0.423868 0.136467 0.417384 -0.285095 0.008294 0.416009 0.275349 -0.002456 0.277576 -0.157369 0.138687 0.215161 -0.013629 0.076718 0.312676 0.203890 0.118900 0.348358 0.336403 0.343671 0.715005 0.535669 0.116801 0.233423 -0.696858 0.275967 0.409687 -0.038046 0.379122 0.124265 0.182221 0.252864 -0.027336 0.019536 0.042620 0.377571 0.293884 0.137784 0.299534 0.182719 0.356853 0.275384 0.076533 -0.018830 0.122296 -0.044546 0.065479 0.537160 0.072100 0.271966 0.190194 0.079394 0.016767 0.379893 -0.041382 -0.109614 -0.038321 0.205355 0.256268 0.388171 0.394881 0.254481 0.243085 0.063872 0.415271 -0.091888 -0.272040 0.250085 0.460555 -0.097430 0.037113 0.169453 0.243421 0.029939 0.054152 0.006225 -0.025220 0.134988 0.430350 0.083962 0.538966 0.448470 0.503045 -0.021134 0.074617 0.228882 -0.088690 -0.307634 0.161478 -0.157783 0.452422 0.185755 -0.000361 0.040113 -0.020868 0.005019 0.085434 -0.039643 0.378705 0.230759 0.269046 0.267410 -0.014861 0.067716 0.239767 0.121544 0.006510 -0.009083 0.100527 0.069573 0.075157 0.193905 -0.207836 0.098762 0.294054 0.017057 0.031351 0.024910 -0.012489 0.143168 0.032443 0.233256 0.325370 0.338662 0.043352 0.279295 0.026438 0.266985 -0.048094 -0.099021 -0.045612 0.186526 0.307400 0.283738 0.192383 0.274877 -0.018294 0.016513 0.048942 -0.007182 0.320431 0.124075 0.139090 -0.038152 0.249873 0.203354 0.136785 0.305746 0.311434 0.002563 0.057018 0.067239 0.316021 0.352013 0.287394 0.082120 0.446579 0.074391 0.220808 0.026051 0.070088 0.070205 0.047124 0.123321 0.144275 0.223051 0.070373 0.131882 0.180481 0.630546 0.091903 0.386867 0.354325 0.244972 0.013200 0.000013 0.345379 0.465205 0.419983 0.492162 0.333281 -0.018013 0.438231 -0.015674 -0.000367 0.099274 -0.107805 0.019030 -0.101185 -0.407852 -0.056292 0.030233 -0.069289 -0.067419 -0.042226 0.107646 -0.378522 -0.349385 0.164297 -0.401041 -0.302334 -0.026964 -0.191085 0.049948 0.374598 0.314346 -0.264434 -0.213084 0.009204 0.119133 -0.043911 0.267068 0.093422 -0.050728 -0.395334 0.089004 0.125032 -0.574307 -0.104696 -0.502540 -0.100535 0.035771 -0.227094 -0.512307 -0.021125 -0.395414 -0.313858 -1.026111 1.726113 -0.375593 -0.098986 0.399912 -0.021370 3.266843 -0.802006 1.128768 0.013264 1.158962 1.303004 4.007276 0.548002 0.768227 -0.049858 -0.139450 -0.933100 0.030876 -1.210041 -1.667040 -1.461330 0.056055 -1.018141 -0.623914 0.281740 -0.040234 1.437734 0.727012 1.490336 0.143965 0.447040 1.161476 3.092588 3.044988 0.889592 -0.043598 -0.919183 -0.663240 0.080649 -0.280471 -0.973641 -1.856406 -0.830196 -1.590027 -1.146013 -0.374549 -0.003379 2.476691 0.714417 1.981852 -0.226177 2.626485 0.413284 4.488662 3.552648 0.304467 -0.152944 -0.260616 -1.079056 0.068700 -0.310414 -1.035753 -0.595472 -0.286672 -1.890620 -0.234851 -0.149385 0.040067 0.724657 3.085812 0.664986 0.272576 3.290400 1.188999 2.047104 4.359622 0.659515 0.375263 0.804137 0.500034 -0.024800 -0.538161 -0.840645 -0.608266 2.044362 0.881517 -0.304015 0.209243 0.024415 0.455067 1.129353 0.571049 -0.090313 0.980390 0.621771 0.416649 2.590328 -0.489458 0.173822 -0.512185 -1.197569 -0.246569 0.742536 -1.815816 -0.231352 -1.675623 -0.921956 -0.730049 -0.876682 -0.397916 0.620337 -0.265298 -0.030771 -0.014355 0.570187 0.213120 2.305211 1.585953 0.211036 0.140620 -0.415689 -0.081382 0.016090 -1.246589 -2.018987 -1.045377 -0.549245 -0.402018 -0.645237 -0.638543 -1.018641 1.761390 1.727847 0.599828 1.105604 1.686724 2.051095 3.898077 2.665246 1.532844 -0.315817 -1.765785 -2.423069 -0.318400 -1.294647 -2.895870 -1.184055 -2.790170 -0.759599 -0.956725 -0.228300 -1.105529 0.855726 2.705405 0.975924 2.806862 4.474861 3.251779 4.810923 4.934710 3.084490 0.372149 -2.448974 0.626621 -0.296715 -2.499866 -2.424957 -1.129756 -3.060044 0.631462 -0.850946 0.031537 0.038654 -0.936986 4.892891 0.901367 0.257002 3.242671 0.959274 0.420298 5.308595 0.357078 0.359420 -1.042912 -1.046398 -0.403682 -1.079633 -0.708544 -0.745343 -0.895779 -1.210341 -0.072616 0.391305 -0.020374 -0.875258 4.751536 0.507770 1.726795 1.030245 1.694905 0.652403 5.496637 1.312252 -0.349664 -3.666395 -1.866854 0.531341 -0.315205 -2.054850 -1.295607 -5.627794 0.723721 -1.237031 -0.510315 1.162628 1.241314 0.554356 2.775331 1.483786 -0.948654 1.830739 3.992224 2.794366 1.070242 -0.556416 -2.101897 -3.828782 -0.318806 -1.639495 -2.661862 -2.187362 -0.325979 -3.122185 0.742533 0.559125 1.215638 2.933099 2.338609 2.634375 3.596319 1.441454 3.141547 5.294231 4.902812 1.826280 -0.649300 -1.276919 -1.877256 -0.291406 -0.785765 -2.233149 -1.871564 -1.156667 -1.969095 -1.144422 -0.898943 -0.494400 2.208325 0.832092 4.075716 3.498639 0.499985 4.223168 4.322719 5.630444 3.490713 -0.001849 -1.937801 -1.113175 -0.827250 -2.298755 -2.298155 -1.143714 -2.430669 -0.685671 -0.820699 -0.531167 1.227699 -0.247166 4.836274 3.041872 3.800082 0.180827 3.074020 2.799286 6.605751 3.170416 -0.151574 -0.964983 -0.104114 0.074983 -1.183939 -0.674085 0.133464 -0.893047 -0.119245 0.076728 -0.004419 -0.121803 1.548025 1.943829 2.279372 1.907697 -1.083638 2.230245 3.144691 4.419990 1.543919 -6.201406 -5.359525 -7.233340 -2.236113 0.105094 -8.697050 -9.260239 -7.500137 0.074135 -6.611591 0.584184 1.753008 2.138099 1.844644 -0.062266 0.057486 5.497712 0.983797 2.203542 4.303278 0.204527 -9.367861 -8.618416 -10.001803 -8.517299 0.002054 -11.452839 -8.787386 -1.519326 -6.067506 -0.744815 -0.321968 0.469118 1.962088 3.841913 0.955633 1.200011 5.113134 1.729635 3.165923 5.113329 0.926252 -0.746002 -1.536018 -1.816662 -0.964353 -1.002658 -1.374834 -0.886494 -0.639009 -2.180168 0.784382 0.446285 0.583787 1.120709 2.953395 1.045552 2.971219 -2.059203 1.199201 3.832940 3.944091 0.668209 -0.115947 -0.385415 -0.783257 0.020263 -2.941388 -0.964664 -0.564657 -2.040457 -0.327241 -1.241225 -0.676128 -0.804987 1.091405 2.083477 0.345215 1.104293 -2.124324 1.118271 3.095922 3.966852 0.724594 0.104326 -0.481807 0.506661 0.096208 -2.310777 -0.596267 -0.047741 -0.192696 -0.207161 -0.076030 0.281109 -0.129352 1.315460 0.744035 1.167291 1.165913 -1.924272 0.638524 3.256840 2.454431 0.719152 -0.003983 0.901655 -0.119143 0.151976 3.504982 -0.612924 1.531599 0.548843 0.946933 0.008942 2.442093 -4.987748 -2.911744 -6.650275 -4.968779 -7.219196 14.316321 -0.262183 -2.166467 -2.011985 -0.118956 -5.552766 -7.984858 -8.436510 -6.601436 0.351008 -7.258976 -0.361812 -6.658068 -0.573135 -0.034706 1.083463 2.241150 2.100341 3.330628 3.423154 1.320605 4.742022 0.491771 2.591848 4.453364 0.019921 -1.119022 -5.368771 -0.733233 -1.410325 -0.527554 -2.221096 0.655565 -5.682626 0.909253 0.031114 0.239250 0.878502 1.883518 -0.499150 1.962114 1.088141 -4.745535 0.685779 2.753784 2.397041 0.041507 0.791196 -1.967516 0.081689 1.304802 -0.509876 -0.046861 -0.633647 -1.878861 -0.738145 0.087267 -0.207904 0.851450 0.892629 -0.130520 0.277256 0.617584 -4.002787 0.262388 1.540432 0.516640 0.127135 -0.204590 -0.184365 -0.523730 -0.108480 -1.588652 -0.965116 -0.381520 0.303078 -0.978403 0.073443 0.014661 0.558721 2.112505 -1.990708 1.693745 1.624582 -3.175564 0.240919 3.312808 0.240481 0.051097 0.367170 -0.027888 -0.576920 0.018452 -0.693731 -0.846106 -1.582851 -1.461767 -0.925840 -1.645044 0.108607 0.091476 0.013510 -0.638765 0.200074 -0.810023 -1.157897 -0.560240 -1.448836 -0.071713 0.289988 -0.706758 -0.451824 -0.033253 -0.108389 0.441906 0.032312 0.083357 -1.227167 -0.544436 1.393697 1.820454 0.701926 -0.843771 -0.321735 -0.334084 0.557094 -0.641099 0.552334 -6.296483 -0.633754 -0.038727 0.575104 -0.677023 1.438098 -0.041117 0.135514 0.663453 0.133736 -0.142436 0.008942 -0.447748 0.082972 0.608069 0.652974 -0.114467 -0.145366 -0.120809 -1.056400 -0.603920 -0.075317 0.033106 -0.097723 0.022707 0.012891 0.051895 0.110510 -0.053816 -0.010171 0.005411 -0.129837 0.000065 0.018855 0.100775 0.000450 0.087304 -0.021409 -0.003001 0.019082 0.025922 0.012883 -0.116374 -0.098840 0.008037 0.097419 -0.086264 -0.075321 0.058576 0.016316 -0.065618 0.039160 -0.069600 0.034276 -0.015425 0.050310 0.102544 -0.026822 -0.074841 -0.035778 -0.113161 -0.040331 -0.072119 -0.023380 0.018228 0.036709 -0.005230 -0.003344 -0.034713 0.090638 0.038894 -0.082358 0.034022 -0.130586 0.023514 -0.020745 -0.036732 0.032591 -0.092359 -0.050919 -0.049811 -0.014329 0.058370 0.104333 -0.097132 -0.064919 0.134865 0.080080 0.024360 -0.038782 0.053245 -0.008044 -0.098600 0.050600 -0.091991 0.027544 0.053889 -0.005283 -0.040738 -0.011033 0.001316 0.043691 -0.131414 0.070524 0.028689 0.121536 0.107997 0.141048 -0.097708 0.014714 0.003105 -0.116911 -0.004085 0.024837 -0.047918 0.047413 -0.037907 -0.024437 -0.062206 -0.055273 0.025947 -0.024878 0.128846 -0.033905 0.073169 0.032667 0.063272 0.035788 -0.032323 -0.137085 0.008205 0.024276 0.042784 -0.064845 0.044194 0.028279 -0.071791 -0.007746 -0.027229 -0.012540 -0.047277 -0.019730 0.051913 0.070147 -0.011387 0.082426 -0.083123 0.071230 -0.042171 0.019784 0.017324 0.017506 0.092449 -0.004245 0.056557 -0.054187 -0.008235 0.077091 -0.006711 -0.088051 -0.070400 0.119150 0.058170 -0.008851 -0.051810 -0.041154 -0.072481 0.045117 -0.016273 -0.004716 -0.022149 0.016764 0.008182 0.053700 0.020711 -0.015046 -0.009294 -0.088389 -0.014812 -0.087210 0.087682 0.013072 -0.003212 0.069497 0.037722 0.095894 0.045910 -0.006283 0.038336 0.033848 0.017613 0.097653 -0.026563 0.090436 0.037889 0.042293 0.032542 -0.014304 0.035261 -0.024291 -0.008303 -0.011090 -0.000746 0.003935 0.004365 0.009331 0.093531 0.058317 -0.031027 -0.040073 0.048582 -0.005586 0.034623 0.016183 0.092840 -0.047584 -0.004785 -0.043194 -0.003231 -0.008332 -0.071142 0.086928 -0.047046 0.006491 0.037235 0.048701 -0.009830 0.136027 -0.141278 -0.056007 0.020262 0.060516 0.113584 0.114221 -0.007689 -0.072330 0.043727 0.006397 0.001126 0.036112 -0.059909 -0.030884 0.071810 0.085967 0.062996 -0.077225 -0.008334 0.033013 -0.081637 0.072251 -0.014969 0.055806 -0.023936 0.083450 0.061196 -0.096450 0.003825 0.038733 -0.014796 -0.025848 -0.094178 -0.009914 0.072987 -0.119556 0.044449 -0.053802 0.062483 -0.005957 -0.107177 0.005959 -0.135554 -0.026152 0.049039 -0.087880 -0.014028 -0.072053 0.019864 -0.022898 -0.087307 -0.068960 -0.044155 0.025567 0.035079 0.030233 -0.032901 0.047632 0.037298 0.024970 0.041096 -0.053530 -0.087499 0.001406 0.042826 -0.050137 -0.125953 0.020243 0.007002 0.042713 -0.028465 0.001677 0.062701 0.036583 -0.000409 0.020590 0.005955 0.018726 -0.049346 0.045530 0.060481 -0.046272 0.013298 -0.027741 0.051032 -0.099231 -0.005043 0.081177 0.011652 0.036322 0.033434 -0.107567 0.020667 0.071677 -0.011189 -0.006842 -0.021908 -0.017644 0.015619 -0.025099 0.026810 0.055804 -0.006726 -0.197445 0.023480 0.137656 0.062455 -0.023003 0.053132 0.035710 0.006811 -0.032273 0.019873 0.006406 -0.021390 -0.012628 0.009962 -0.097267 -0.058005 0.009139 -0.093455 0.022408 -0.041701 0.010531 -0.085194 0.008574 0.104933 -0.009429 -0.013131 0.025868 0.015356 -0.016568 0.048221 -0.083515 0.003697 -0.093321 0.008014 0.015723 0.071272 -0.131684 -0.020847 -0.031253 0.019410 -0.080292 0.062972 -0.024567 0.044866 -0.041249 -0.039675 -0.066600 0.025509 -0.136696 -0.016057 0.008913 -0.013965 0.002261 -0.119671 0.037923 -0.017170 0.002895 0.070551 -0.008601 -0.051499 0.014637 -0.052606 0.059877 0.077715 0.008075 0.086680 -0.032912 -0.045746 -0.095443 0.117432 0.023901 0.050466 -0.005877 -0.012796 0.020322 -0.051083 -0.072832 0.005478 -0.077935 -0.043274 -0.046608 0.065930 -0.068271 -0.006972 -0.020399 0.050948 -0.010267 -0.022835 -0.035135 -0.047642 0.024110 -0.002865 -0.003405 -0.055541 0.031264 -0.031202 0.097018 -0.098799 0.022771 -0.033164 -0.037617 0.014872 0.010258 0.008409 0.007861 0.032535 0.042316 0.054353 -0.019052 0.016979 -0.054601 0.010619 0.014060 -0.045959 0.003774 0.131073 -0.040498 -0.076185 -0.005310 -0.003029 0.010367 -0.103876 0.061203 -0.023905 0.013954 0.103231 0.028473 -0.051330 0.001223 -0.057434 0.096460 0.014121 -0.012140 0.033322 -0.108234 0.043354 -0.096615 -0.038237 0.059108 0.017758 -0.042895 -0.149151 0.041025 0.007614 -0.040531 -0.022628 0.001506 -0.010686 -0.011447 -0.010579 -0.087391 0.069202 0.037938 -0.129368 0.047327 -0.093377 0.051754 -0.057565 0.002917 -0.013644 -0.039217 -0.057204 -0.011158 -0.001998 0.007722 -0.061949 -0.022539 -0.038559 -0.074536 0.022153 0.036774 0.026535 0.038965 -0.058135 0.029141 -0.057493 0.028496 0.029870 -0.103613 0.096824 -0.074589 -0.057012 -0.077295 -0.054260 -0.011331 -0.123071 0.094008 -0.047614 0.025237 -0.060800 -0.042938 -0.021397 -0.015317 -0.032645 0.008081 -0.066789 0.003630 -0.029515 0.099159 0.006475 -0.006817 0.004132 -0.082003 -0.008379 -0.131335 -0.015293 -0.056895 0.044815 -0.081838 -0.159886 -0.038841 0.041067 -0.063075 -0.025868 0.053253 0.005795 -0.091991 0.032713 -0.036419 -0.110049 0.028748 -0.024964 -0.041478 0.006495 0.010809 -0.110578 -0.063257 0.001886 -0.080106 0.117298 -0.086743 -0.073886 -0.018504 0.032767 -0.015184 -0.168939 -0.110357 -0.027768 -0.012803 -0.150929 -0.051199 -0.063979 0.012426 -0.105394 -0.136595 -0.114615 0.038346 0.060179 -0.024602 -0.053808 -0.063168 -0.020370 0.023054 -0.058887 -0.036697 -0.033754 -0.075508 -0.019246 -0.013979 -0.010539 -0.058029 -0.008344 0.060006 -0.025900 -0.022166 -0.185683 -0.064238 -0.035695 -0.065708 0.007613 -0.038721 -0.097846 0.003400 -0.023333 -0.006480 0.002461 -0.011098 -0.111315 -0.014519 0.107548 0.101547 0.048795 -0.046044 0.079376 -0.062447 -0.033527 -0.035342 -0.031522 -0.034478 -0.027943 -0.052379 0.039859 0.000738 -0.062342 0.008261 -0.035134 0.041462 -0.086781 -0.090096 -0.010745 0.116761 0.038224 -0.006316 0.054791 -0.109789 0.021007 -0.053013 0.024950 -0.034838 0.033180 0.026260 -0.110749 0.077879 -0.004792 0.012049 -0.037545 -0.072920 -0.012723 0.076433 0.033833 0.091016 0.007572 -0.015032 -0.087964 0.103890 -0.012287 0.007992 0.062844 0.082216 -0.086555 0.083036 -0.001333 0.015028 -0.015911 0.073503 -0.028716 0.039315 -0.030082 0.011928 0.051075 -0.015596 -0.015801 0.033897 -0.066667 -0.029073 0.011410 -0.054577 -0.076681 -0.041292 0.043133 -0.041162 -0.109310 -0.006463 -0.061238 -0.049554 0.114567 -0.113664 -0.160138 -0.023200 -0.085045 0.086861 -0.078994 0.094517 0.090562 0.078682 0.083166 0.062984 0.083947 -0.012615 0.043574 -0.095252 -0.075386 -0.047681 -0.091735 0.010800 0.044909 -0.079803 -0.054266 -0.067967 0.022203 -0.108112 0.061915 -0.002046 -0.059334 0.043039 -0.046304 0.008693 -0.069558 0.086908 -0.009537 0.013144 -0.002982 -0.041941 0.020182 0.007715 0.062753 -0.000325 0.083657 0.008858 0.011871 -0.037879 0.000681 0.055468 0.131550 -0.089643 0.019859 -0.071344 0.034672 0.027671 -0.079422 0.134504 -0.097749 0.029135 -0.006492 -0.088239 0.003551 0.069211 -0.004579 -0.020545 0.016203 -0.062824 -0.032937 0.015760 0.048541 -0.048668 0.083212 0.122799 -0.015215 -0.017930 -0.047888 -0.005153 -0.011356 -0.026073 0.049215 -0.104241 0.022543 -0.033392 -0.009185 -0.086670 -0.007347 0.175967 0.075439 -0.035587 -0.014371 0.079351 0.119539 -0.123350 0.003950 -0.166168 -0.045944 0.024714 0.139508 -0.080356 -0.080917 -0.080158 -0.068793 -0.018797 -0.121469 0.018085 -0.028160 0.065335 0.131338 0.033347 0.021985 0.062949 -0.033280 0.051541 0.080132 -0.019173 -0.084589 0.003187 -0.060576 0.009079 -0.218088 -0.127245 -0.079296 -0.022430 0.065994 -0.013038 0.004538 0.003667 -0.051855 0.007051 -0.010875 -0.077680 -0.021812 -0.047301 -0.044115 0.025814 -0.044822 -0.076759 0.024408 -0.040921 0.059366 0.034384 0.010279 -0.018343 -0.022364 0.049678 -0.026962 -0.044831 -0.086558 0.026321 0.039069 -0.040402 0.001160 0.028578 -0.025565 -0.049363 0.001519 0.022555 -0.011317 -0.097855 -0.009053 -0.044976 0.042451 -0.126042 0.069822 0.026062 0.018546 -0.027061 0.012256 -0.004518 -0.029559 0.051257 -0.053637 0.101473 -0.013834 0.033490 0.008727 -0.064649 0.050597 -0.049754 0.006584 0.027182 -0.027510 0.073620 -0.097254 -0.039893 -0.039195 -0.024865 -0.016367 -0.016901 0.025478 0.097339 0.040693 -0.019938 -0.066509 -0.042506 0.015147 0.018344 -0.056122 -0.109686 -0.027709 -0.044421 0.088755 0.031525 0.117628 0.051672 -0.012889 0.032825 0.146880 -0.088427 0.075861 0.003398 0.038396 -0.022704 -0.063088 -0.065205 0.122206 0.048230 -0.025620 -0.057919 -0.007910 -0.086041 0.004617 0.034339 -0.047907 0.014895 0.034936 0.028169 -0.027770 0.039837 0.078195 0.054600 0.017232 -0.037858 -0.076724 0.043673 -0.104495 0.104716 -0.028728 0.058890 0.126449 0.027182 0.003750 -0.067560 -0.019982 0.092022 -0.082989 -0.048423 -0.035460 0.046596 0.014778 -0.055558 0.065006 -0.050632 0.038765 0.037105 -0.003034 -0.035995 0.040841 -0.001025 -0.060805 0.111234 -0.012706 -0.019508 -0.042203 0.041331 0.042317 0.007398 -0.032469 -0.056806 -0.044908 0.060727 0.037291 0.026806 0.093782 -0.015291 0.064280 0.014505 0.017880 -0.028233 0.016591 -0.010724 0.037861 -0.055080 -0.034682 -0.084101 0.038617 -0.056080 0.006353 -0.026244 0.075344 0.012899 -0.050065 0.009778 0.083617 -0.113705 0.020031 0.012227 0.103962 -0.036768 -0.061919 -0.019692 -0.074344 0.007626 -0.111120 -0.040796 0.097836 0.012289 0.065769 0.021574 -0.014635 0.051211 -0.009628 -0.038550 0.089087 -0.029544 0.065534 -0.005211 -0.107228 -0.049246 0.063854 -0.059602 0.034176 -0.008897 -0.047388 -0.115337 0.016893 -0.040315 0.163746 -0.005128 0.002943 -0.012782 0.096785 -0.018443 0.057509 -0.011298 0.100737 0.025187 -0.028964 -0.043387 0.039658 0.054582 0.059255 -0.054033 -0.068182 0.041702 -0.067859 -0.029014 -0.018210 -0.044578 0.012801 0.110832 -0.018748 -0.017328 -0.104766 -0.080767 -0.077530 0.011852 0.045263 0.020478 -0.002277 -0.118386 0.080094 0.033517 0.001584 -0.054964 0.063601 -0.011681 -0.083296 0.043500 -0.051205 -0.004722 -0.016152 -0.015968 -0.032360 -0.043551 -0.050236 -0.034810 -0.019751 -0.029137 0.019482 -0.003245 -0.057863 -0.097582 -0.028136 0.014101 -0.099726 0.063952 -0.046870 -0.011644 0.012076 0.010789 -0.067508 0.087523 -0.095644 0.015575 0.016198 0.085818 -0.052001 -0.052910 -0.098382 -0.005739 0.016182 0.079067 0.001019 -0.046567 0.022171 -0.068166 0.064380 -0.013846 0.090622 0.030496 -0.006183 -0.055944 -0.054296 -0.067161 -0.068942 -0.080266 -0.005350 -0.076562 0.040842 -0.012133 0.006847 -0.087875 0.038047 -0.008204 -0.021464 0.001440 0.001327 -0.077672 -0.037186 0.013335 -0.020464 -0.042164 -0.072801 -0.029840 0.020702 -0.010490 -0.021484 -0.035573 -0.012243 -0.052755 0.074035 -0.057532 0.004918 0.027416 -0.034419 -0.021785 -0.005967 0.040459 -0.078510 -0.008369 -0.077041 -0.051301 -0.041039 -0.085867 0.048486 -0.017930 -0.048938 -0.060449 0.040191 -0.163230 -0.069765 -0.054279 -0.035772 0.066047 -0.028677 0.097287 -0.122099 0.030436 -0.030613 -0.075410 -0.098217 0.053988 -0.020778 0.012733 -0.034389 0.010501 -0.093501 -0.085956 -0.119637 -0.061822 -0.039965 -0.069954 -0.035673 0.045271 -0.042722 -0.103460 0.055928 -0.253245 -0.067002 -0.061646 -0.082130 -0.062432 -0.072147 -0.018300 -0.022404 -0.026379 -0.012249 -0.044726 -0.025861 0.004931 -0.066727 -0.011992 -0.002267 0.026436 -0.001682 -0.058322 0.049336 0.034163 0.073561 -0.018778 0.045910 -0.033468 -0.021123 -0.051926 -0.026928 0.083021 -0.020480 0.010195 0.143745 0.208366 0.148926 0.023215 0.049902 0.046059 0.122046 0.011022 0.013770 0.105382 0.074085 0.061570 -0.035816 -0.081983 0.246428 0.133157 0.277831 -0.088709 -0.228204 0.038519 -0.014638 -0.009679 0.158960 0.170751 0.063228 0.064978 -0.028415 0.166542 0.027227 0.010852 0.046276 0.039381 -0.096147 -0.099777 0.000783 0.019408 -0.001880 -0.014054 -0.052403 -0.014125 0.013123 0.102026 0.205459 -0.062908 0.255300 0.008432 0.003965 0.058532 0.097108 0.066349 -0.035881 -0.047818 -0.077487 -0.024111 0.134906 0.015437 0.144426 -0.091626 0.088653 0.090498 -0.121198 -0.064289 -0.030576 0.081113 0.114154 0.021685 0.159060 -0.059004 -0.073145 -0.005939 0.130498 0.004234 0.020369 0.004150 -0.084346 0.355890 -0.008367 0.004218 0.075681 -0.011016 0.074936 -0.157632 0.115823 0.043545 -0.031080 0.144229 0.225451 0.094889 -0.162226 0.122649 -0.047314 0.056910 -0.027320 0.078817 0.055276 -0.054507 0.054999 -0.150560 -0.014777 0.215454 -0.076406 0.093153 0.011659 -0.063362 0.020685 0.266104 -0.043878 0.013709 -0.080266 0.160596 -0.015558 -0.064927 0.157086 -0.021152 0.145632 0.089505 0.027899 0.007156 0.100795 -0.199352 0.078287 0.002495 0.019871 0.063194 -0.012883 0.020634 0.290259 -0.002044 -0.055953 0.076037 -0.074751 0.179055 -0.047976 -0.010555 -0.046067 -0.083121 0.150682 -0.080895 0.054546 -0.120505 -0.013499 0.171741 -0.088266 -0.150241 0.087324 0.087693 0.290653 0.272023 0.100515 0.039313 -0.044366 0.106506 0.001260 -0.015100 -0.162486 0.088498 0.070651 -0.098337 0.112779 0.068342 0.015729 -0.095256 0.071155 -0.059976 0.017576 -0.034251 0.072412 0.017220 0.061416 0.136373 -0.009306 0.088783 0.040948 0.037374 0.211955 0.120347 0.005907 -0.014259 -0.000287 -0.090770 -0.002414 0.027972 0.078382 -0.070581 0.233917 0.015841 0.025650 0.019838 0.078415 0.019336 -0.084971 0.090127 0.168898 0.041095 -0.092326 0.106374 0.011063 0.095536 -0.009432 0.054692 0.192806 -0.104687 0.044923 0.096490 -0.041944 0.110608 0.167576 -0.085842 0.232989 -0.155326 0.072514 -0.075425 0.085989 0.095427 0.044850 -0.023332 -0.036583 -0.024868 0.026434 -0.018006 0.045565 0.039891 -0.111579 0.286096 -0.097948 0.242137 0.088804 0.197616 -0.348046 0.077541 0.119236 0.057371 0.198621 0.074699 0.061864 0.065993 0.105148 0.054616 -0.025503 0.079066 0.036081 0.130744 -0.037277 -0.093268 -0.103699 -0.050608 -0.021125 -0.037233 0.025202 -0.056950 0.065115 0.035037 0.237666 0.070378 0.031979 0.158470 -0.096119 -0.129935 0.048623 0.013333 -0.047124 -0.020908 -0.028276 -0.064109 0.015870 0.045682 -0.024465 -0.045196 0.186858 0.195740 0.006022 0.146886 -0.028783 0.014664 0.100448 -0.134904 0.078782 -0.084974 -0.025799 -0.096712 0.044921 -0.012801 -0.036831 0.122210 -0.088001 0.205404 0.149347 0.020172 -0.069261 0.039722 0.025856 -0.307798 0.246692 0.086942 -0.070408 0.058540 0.168481 0.196386 0.024712 0.042927 -0.061764 0.107893 0.017541 0.024224 0.119349 0.053852 -0.021356 0.077282 0.103472 0.043431 0.185971 0.174157 0.051299 -0.222363 0.029170 0.016739 -0.042240 -0.133129 -0.104438 0.041314 0.094252 -0.062183 -0.123299 0.248714 0.077782 -0.019587 0.109616 0.002453 0.021550 -0.023938 0.021551 -0.116284 -0.047871 -0.055354 0.047215 -0.074854 -0.119311 -0.076453 0.079406 -0.081626 0.136952 -0.102014 0.019620 0.018719 0.049138 0.029173 0.035997 0.030855 -0.025704 -0.069369 0.230977 -0.035187 -0.077843 -0.023397 0.010571 0.035855 -0.123083 0.080983 0.156381 -0.138663 0.330401 -0.019204 0.077307 0.144127 0.003320 0.134225 0.050414 -0.014362 0.275379 -0.042168 0.053681 0.002914 0.168999 -0.004759 0.065999 0.041237 0.107621 0.220002 0.070946 -0.007254 0.014392 0.143940 0.037986 0.023383 -0.092092 0.007989 -0.024370 0.071006 -0.127542 0.292719 0.072668 0.220261 -0.103767 0.040200 -0.023843 0.007204 -0.235253 -0.026954 0.010143 0.039454 0.040850 0.275496 0.071625 -0.059413 -0.028904 0.072453 0.004040 0.196725 -0.023629 0.134735 0.000241 -0.114589 0.129560 0.109525 0.120067 0.055914 -0.059473 0.089985 0.047497 0.170759 -0.032776 0.237084 0.081723 -0.207457 0.004754 0.018619 0.003397 0.084999 0.122741 0.062133 -0.044792 0.152614 -0.018032 0.142465 -0.040263 -0.043400 -0.090872 -0.094464 -0.097771 -0.083259 0.171468 0.105533 0.118926 0.128499 -0.036705 -0.016975 0.082623 0.139241 0.039215 0.083226 0.112595 -0.061831 -0.040374 0.083356 0.208002 -0.018879 0.160572 0.015557 -0.038713 0.028812 -0.133738 -0.036977 0.130350 0.041352 -0.069309 -0.174761 0.143936 0.103235 -0.096625 -0.011032 -0.004587 -0.133007 0.015492 0.026716 0.063381 0.030276 0.007906 -0.018362 0.156099 0.058895 0.078445 -0.072569 -0.103174 -0.018326 0.043651 -0.093720 0.170024 0.046071 -0.066881 0.004642 0.022370 0.115507 0.033964 -0.021773 -0.183655 -0.020087 0.151029 0.014251 0.089754 0.003387 -0.077452 -0.009674 -0.074124 -0.118784 0.087000 -0.068896 0.064223 0.003632 -0.034470 0.102259 0.034361 0.066030 0.273771 0.024999 -0.116005 -0.056828 0.016168 0.032339 0.281215 0.090621 0.094026 0.138949 -0.097820 -0.360130 -0.033253 0.048583 -0.050867 -0.020581 0.083308 0.020725 -0.205022 0.044252 -0.417261 -0.307902 -0.101427 0.045726 -0.062407 -0.050405 -0.223631 -0.153753 -0.121576 -0.096625 -0.100357 -0.093263 -0.198176 -0.075945 -0.159738 -0.145530 -0.121657 0.044277 0.142851 0.014682 0.017949 -0.003976 -0.217131 -0.000930 -0.095922 -0.223804 -0.219626 -0.346135 -0.149686 -0.196072 0.012684 -0.146932 -0.010370 -0.164232 -0.206952 -0.183290 -0.015203 0.063791 -0.129948 -0.134944 -0.000709 0.063484 -0.057846 -0.076033 0.041826 0.009660 -0.021514 -0.139909 -0.057507 -0.053393 -0.099012 -0.081598 -0.058624 -0.048700 0.065705 0.069018 -0.058226 -0.037603 0.028354 0.006841 -0.020469 0.037438 0.030869 0.011986 -0.069448 -0.128584 -0.114006 0.069263 -0.017142 -0.061985 0.035813 0.013096 0.101921 0.137197 -0.032107 -0.088807 0.030670 -0.007526 0.037881 0.027448 -0.024127 -0.002954 -0.005145 -0.068174 -0.076391 0.012256 -0.054479 -0.028826 0.013569 0.012612 0.041259 -0.118081 0.027081 0.031800 0.010654 0.084871 -0.028064 0.093789 -0.090020 0.013381 0.077289 0.103241 0.019111 -0.027574 0.009292 -0.073842 -0.009939 0.008829 -0.083404 0.182070 -0.027992 0.068379 -0.083414 -0.033282 -0.078774 -0.032917 0.003119 -0.017510 0.033139 -0.160641 0.013683 0.027065 0.010731 0.005094 0.024824 0.075555 -0.009598 -0.067075 -0.101490 0.000080 -0.055243 -0.041591 -0.071618 0.115961 0.041554 -0.022362 0.056530 0.083845 0.003099 -0.049322 -0.020226 0.000541 -0.008237 -0.079890 0.082307 -0.181176 0.004931 -0.071235 -0.023369 -0.124858 -0.018856 -0.052630 0.134812 -0.023628 -0.085665 -0.080572 -0.008245 0.026501 -0.029744 0.022969 -0.005409 -0.028428 -0.047006 0.030642 0.075760 -0.015308 0.087367 0.029771 -0.038811 -0.028377 0.012748 0.031955 -0.024114 0.073664 -0.015402 -0.014141 -0.021846 0.053259 0.039713 -0.018878 0.013337 -0.031079 0.020023 0.035818 0.125602 0.040220 0.100841 0.000629 -0.045198 -0.034460 0.047648 -0.038691 0.106672 -0.065494 0.066037 0.059077 0.002294 -0.082010 0.031666 -0.072553 0.022166 0.008264 -0.080911 0.051722 0.074749 0.074448 -0.087676 -0.066796 0.009988 0.081137 -0.023684 -0.128876 -0.016496 0.024887 -0.000163 -0.098982 -0.042683 0.058140 -0.038579 -0.156101 -0.019938 -0.082997 -0.086206 -0.023418 -0.010954 0.131755 0.048645 0.062067 -0.052702 -0.014975 0.052003 -0.032168 0.018427 0.012667 0.042272 -0.063854 -0.077484 0.016121 -0.007721 0.010059 -0.014595 -0.022688 0.042651 0.029409 -0.088428 -0.049932 0.137963 0.040472 0.063401 -0.050115 0.106291 0.026175 -0.051210 0.020964 -0.071760 0.113305 -0.038834 -0.040440 0.068638 -0.050926 -0.034990 -0.060505 -0.058909 -0.024899 0.063817 0.027108 0.038907 0.049459 -0.030959 0.092031 0.008842 -0.090819 -0.027496 -0.059266 -0.010198 0.007519 -0.012420 0.011802 -0.038746 -0.003042 -0.074324 -0.141645 0.048619 0.013079 -0.130991 -0.009728 -0.014425 -0.051388 0.038465 -0.038985 -0.070839 -0.091779 -0.025832 -0.072229 -0.069731 0.045845 -0.001737 0.048837 0.042792 -0.043792 -0.027121 -0.051755 -0.047845 0.052385 0.079528 -0.004535 0.020753 0.026274 0.082031 -0.025632 0.092302 0.010312 -0.028415 0.076232 0.006258 0.065926 0.022171 -0.075011 -0.036151 -0.064268 -0.052189 0.028621 -0.078197 -0.004661 -0.053171 -0.055486 0.003469 0.021497 -0.002950 0.000521 0.107659 -0.039912 -0.006938 0.000471 0.000238 0.007895 0.070341 -0.027129 0.036824 -0.017362 -0.017300 -0.023830 0.020361 0.025427 -0.024957 0.025625 0.045571 0.044318 -0.036839 0.109486 -0.088607 0.056410 0.017147 0.064460 0.013873 0.044080 0.041957 0.082579 -0.116437 0.045092 0.039808 -0.082455 0.004378 0.014628 -0.053517 0.049033 0.008226 -0.014291 0.049560 0.046973 0.000776 0.091093 -0.006246 -0.025918 -0.117631 -0.034483 -0.014197 -0.026592 -0.041276 -0.053732 0.084052 0.057333 0.005846 -0.037336 -0.004695 -0.064568 0.002970 -0.096715 0.061186 -0.107738 0.067753 -0.084932 0.047410 -0.038382 -0.026514 -0.020437 0.003011 0.077312 -0.023468 -0.064417 -0.092830 -0.050970 0.044635 0.017850 0.004057 0.008627 -0.004949 -0.030421 0.112626 -0.025438 0.007311 -0.095428 -0.045106 -0.021042 0.102866 -0.053968 0.028565 -0.013654 -0.078425 0.020418 0.002049 0.051648 0.004442 0.079676 0.137026 -0.041398 0.003317 -0.063371 0.037999 0.032289 -0.090574 -0.125666 0.002130 -0.026612 -0.085903 -0.003134 -0.007017 0.035552 0.079240 -0.089081 -0.115684 -0.037036 -0.075936 0.097896 0.037520 -0.037257 -0.032367 -0.089584 0.025354 -0.052784 -0.009044 -0.040109 -0.070191 0.010937 -0.002192 -0.097030 -0.053668 0.023549 0.015638 0.039478 0.010353 -0.084769 -0.044498 -0.026501 0.000300 0.094395 -0.097251 0.018740 0.028387 0.040522 -0.054392 -0.066639 -0.011925 -0.024215 -0.007741 -0.128411 0.006299 -0.006187 0.028419 -0.037604 -0.014097 -0.056196 -0.073531 -0.044660 0.005780 -0.041298 -0.029358 -0.093163 -0.069076 0.062535 -0.000520 -0.013367 0.011203 0.067350 -0.001488 -0.032671 -0.055197 -0.014481 -0.034860 -0.101578 0.085899 -0.012084 -0.078906 -0.044900 -0.097238 -0.061952 -0.073298 0.064431 0.077581 -0.008541 -0.038742 -0.018293 -0.081464 -0.006654 -0.018518 0.054095 0.047365 -0.013006 -0.093067 -0.073614 -0.015076 -0.058203 -0.087119 -0.022432 0.036062 -0.003613 -0.100197 0.033445 -0.012729 0.098613 -0.041288 -0.146099 0.007097 -0.048182 0.112116 -0.001390 0.058785 0.036405 -0.017072 0.001595 -0.066158 -0.040460 -0.083916 0.019010 -0.009961 0.045881 -0.021528 0.061643 0.010180 -0.069982 0.028618 0.032013 0.015742 -0.033399 -0.074001 -0.054365 0.017666 0.004451 -0.028807 -0.021691 -0.046500 -0.022411 0.121105 -0.019134 -0.072064 -0.010546 -0.007420 0.058524 -0.066447 -0.129187 0.014122 -0.019071 -0.046833 -0.008028 0.010142 0.003630 -0.037880 -0.085175 0.043985 0.035821 -0.086227 -0.077258 -0.021056 -0.021933 -0.099811 -0.030119 -0.079328 0.093493 -0.096405 -0.031687 -0.056346 -0.143366 0.088830 -0.003335 -0.041793 0.033819 -0.064511 -0.017747 -0.011992 -0.061354 -0.066735 -0.030038 -0.047066 -0.109885 -0.037754 -0.034037 -0.005717 -0.044562 -0.107398 0.025964 -0.117259 0.016269 -0.091011 -0.027353 -0.034767 0.010477 -0.145410 -0.095416 0.016762 0.039190 -0.055170 -0.120207 -0.049468 -0.051597 0.034553 0.030334 -0.002192 -0.069791 0.025381 -0.062736 -0.062988 0.103362 -0.056707 0.085374 0.073579 0.012947 0.041983 -0.060243 -0.061154 0.061287 0.035309 -0.061752 -0.021704 -0.047330 -0.002465 -0.011207 -0.014230 -0.077292 0.021434 -0.062866 -0.052742 -0.015575 0.073918 -0.016516 0.015890 0.086532 -0.088754 0.005966 -0.026610 0.018176 -0.010427 0.125461 -0.111962 -0.012835 0.031509 -0.003296 0.031858 0.064737 0.130407 -0.028520 0.054450 -0.092588 0.041592 -0.052651 0.015779 -0.084309 -0.047071 -0.107748 -0.128512 -0.070965 0.036941 0.080324 -0.052279 -0.004936 0.061553 0.155669 -0.055725 0.078887 0.162918 0.074591 -0.097978 -0.084533 0.010989 0.124889 0.067213 -0.000715 0.012564 -0.089913 -0.095758 0.007169 -0.086407 0.002081 0.038225 0.035375 0.056442 0.001427 0.037393 -0.126821 -0.009124 0.073414 -0.033773 -0.101761 0.064770 0.020934 0.029810 0.120919 0.008433 0.050275 -0.008859 0.077854 0.051882 -0.056599 -0.066533 0.044966 -0.052841 -0.120039 -0.011241 -0.045486 0.034024 -0.026901 0.007610 0.071931 -0.088787 -0.083241 -0.091580 0.064994 0.063434 -0.021034 -0.055084 0.048262 -0.023805 -0.082039 0.026490 -0.048180 -0.027590 -0.155832 0.037039 0.037832 0.007195 -0.023420 -0.089506 -0.002406 -0.094823 -0.019395 0.017714 0.066955 0.039483 0.018943 -0.058183 0.005081 0.024292 -0.155037 -0.085614 0.057165 0.033995 0.018738 0.040439 0.006449 -0.037638 0.027590 0.024095 0.170215 0.178931 0.015916 -0.050571 -0.018348 -0.075207 0.038313 0.062152 -0.149446 -0.120775 -0.053149 -0.038594 0.055814 0.117892 0.064234 -0.074291 -0.021576 0.000988 -0.025654 0.047700 -0.064927 -0.026931 0.025846 0.002392 0.022436 0.084272 -0.002233 -0.043979 -0.049386 0.046703 0.018260 0.112370 -0.215392 -0.044966 -0.057243 0.062851 0.163649 -0.021579 -0.007860 0.033962 -0.053961 0.017276 -0.072829 0.001410 -0.032576 -0.154909 -0.098105 -0.041809 -0.087936 -0.099829 -0.056711 -0.049802 0.068759 -0.145339 -0.093691 -0.034649 0.078394 -0.029176 -0.089764 0.022839 -0.013084 -0.057306 -0.006791 -0.056123 0.035999 0.028257 0.015535 0.029275 0.074033 0.013705 0.006360 -0.076915 -0.033245 0.031182 -0.015012 -0.066291 -0.079800 0.030802 -0.037072 0.141768 -0.067414 0.032290 -0.166502 -0.130039 0.007047 -0.029403 0.018334 -0.081608 0.099314 -0.045269 -0.007578 -0.037027 -0.083866 0.005627 0.001534 0.004961 0.037909 -0.049938 -0.009348 0.084320 0.028570 -0.090080 -0.093654 -0.010957 -0.064122 -0.066901 0.033192 -0.139568 -0.011400 -0.131612 0.012843 -0.026002 0.069377 -0.001880 0.064182 -0.058192 0.003821 -0.092985 0.001443 -0.016986 0.045269 0.036996 0.009575 0.026492 0.013089 -0.036151 0.077271 -0.038257 -0.043339 0.104012 0.058109 -0.008299 -0.032202 0.103835 0.037841 -0.055977 -0.131869 -0.114287 0.036329 -0.079096 0.017310 -0.068711 -0.004132 -0.109227 -0.042763 0.001131 0.081946 -0.007417 0.131117 0.019615 -0.012542 -0.081563 -0.095207 0.102225 -0.017949 -0.106477 0.002497 -0.062329 -0.086282 -0.056126 -0.002352 0.003753 -0.056953 -0.106073 0.006583 -0.058193 0.036166 -0.080375 -0.043794 0.025860 0.081051 -0.049477 -0.004438 -0.081129 -0.057783 -0.147423 -0.011163 -0.059029 0.050462 -0.025138 0.070302 -0.001470 -0.085724 0.008569 -0.091612 -0.032475 -0.091650 0.035891 0.018676 -0.102983 -0.008196 0.002768 -0.080197 0.030611 0.020903 0.039695 0.127154 0.052443 -0.101045 0.002442 -0.000500 -0.096787 -0.078186 -0.022429 -0.067571 0.012249 0.161389 -0.044706 -0.044593 -0.029101 0.030253 -0.022274 0.004315 -0.004991 -0.064516 0.037199 -0.001338 0.036795 -0.035243 -0.018735 0.059359 -0.157285 0.020335 -0.006451 0.045501 0.006733 -0.039604 0.036585 -0.040240 -0.024684 -0.050571 0.033487 -0.062779 -0.017172 0.070026 0.072350 0.106657 -0.036013 0.027459 0.013787 -0.077898 0.055123 0.012046 0.039350 -0.020199 0.046734 0.001750 -0.032832 0.043637 0.005687 0.084327 0.051482 -0.070200 -0.112833 -0.043017 0.017073 0.086791 -0.031833 -0.065041 0.035068 0.022426 0.124004 -0.065003 0.016164 -0.034400 0.065523 0.028176 -0.044937 -0.050937 0.016208 0.081614 -0.003978 -0.038249 0.018454 -0.040450 -0.127067 -0.008646 -0.046778 -0.124025 -0.023065 0.049226 0.080664 -0.052260 -0.082332 -0.162477 0.065882 0.080312 -0.053951 -0.046815 0.026879 0.002341 -0.011995 0.079678 0.018150 0.016122 0.040105 -0.140176 -0.082058 0.021480 -0.044975 -0.125330 -0.069921 -0.082734 0.037530 -0.035891 -0.096960 0.080024 0.013683 -0.017185 0.060960 0.004989 -0.009162 0.011909 -0.048832 0.061282 -0.039682 -0.042704 -0.108206 -0.023579 -0.080034 -0.093139 -0.048784 0.158580 0.026101 -0.010202 0.080300 0.049397 -0.000055 0.004604 0.051070 0.106915 0.062191 0.035151 -0.070632 -0.028953 -0.047675 0.061507 0.014118 0.092727 -0.034765 -0.028887 0.024730 -0.066876 -0.010142 0.032486 -0.013324 0.018921 -0.139137 -0.036507 -0.106769 -0.009005 -0.129752 0.010123 0.075527 -0.060559 -0.053590 -0.015688 0.033773 0.050106 0.047504 -0.062170 0.016944 0.047725 -0.017886 0.086042 -0.036731 0.023340 -0.061658 0.056818 -0.037019 -0.029355 -0.008892 -0.066648 -0.062110 -0.099944 -0.070763 0.074929 -0.010763 0.109372 0.005836 -0.070398 -0.035938 -0.107489 -0.035720 -0.015552 -0.107514 0.013044 -0.001405 -0.082692 0.111543 -0.015530 -0.080481 -0.092514 0.029297 0.080846 -0.097889 -0.067251 -0.013101 0.025220 -0.000296 -0.055017 -0.056959 -0.129610 -0.000908 0.042163 -0.156353 -0.117117 0.030326 0.068133 -0.113080 -0.076895 -0.000612 -0.150763 0.012411 -0.101332 0.037030 0.097345 0.002895 -0.114796 0.082267 -0.013670 0.060200 -0.040940 0.025647 -0.066308 -0.000644 0.056138 0.029055 -0.085951 -0.134202 -0.035413 -0.111344 -0.057179 -0.073121 -0.114592 -0.047510 -0.098753 -0.026190 -0.039431 0.049531 -0.026787 0.012462 0.085232 -0.060050 -0.126231 -0.008221 0.051445 -0.036965 -0.085934 -0.059838 -0.035105 -0.001794 -0.002348 -0.071964 -0.012461 0.004498 -0.012211 -0.048992 0.041155 0.076253 0.026957 0.087611 -0.107973 -0.010952 -0.029893 -0.070316 -0.038856 0.036723 -0.082311 -0.037292 -0.200784 0.066772 -0.046356 -0.050193 0.057275 -0.132144 0.052077 -0.084566 0.024196 0.019845 -0.147042 -0.024718 -0.091481 0.068958 -0.052717 0.003990 0.037687 -0.032178 -0.038847 -0.070488 0.025957 0.005969 -0.013649 0.016596 -0.033588 -0.001841 -0.008038 -0.142540 0.081697 0.044819 0.005423 -0.040207 -0.015016 -0.084284 -0.073979 -0.004885 -0.068149 -0.039802 -0.028663 -0.030720 0.062893 -0.094731 -0.065059 0.041882 -0.035002 0.048238 0.027603 0.011227 -0.040608 -0.063572 -0.017040 0.042888 0.056230 0.106429 -0.066628 0.000199 0.036516 -0.039727 0.061490 -0.030124 -0.056243 -0.047887 -0.024620 0.055432 0.018463 0.049940 0.044946 -0.040584 0.057815 0.001124 -0.052683 -0.015441 0.018464 -0.033833 0.010103 -0.038210 0.034938 0.017444 -0.047940 -0.079838 0.055976 -0.048306 -0.027471 -0.079118 0.007952 0.062452 0.000711 -0.004342 -0.021424 0.073244 -0.018126 0.075086 -0.000013 -0.038237 -0.090255 0.033328 -0.021847 -0.032916 0.019720 0.072940 0.110270 -0.028793 -0.050530 -0.045470 0.069687 -0.127983 -0.064397 -0.047051 0.022423 0.012628 -0.009715 -0.022450 0.035102 -0.125233 0.041958 0.028370 -0.032855 -0.000010 -0.100475 -0.033072 -0.055636 0.029678 -0.064376 0.094215 -0.064570 -0.085227 -0.057419 -0.004108 -0.101843 -0.029107 0.004280 -0.060584 -0.045382 -0.084961 0.045864 -0.028191 0.064976 -0.036065 -0.002075 0.012019 0.002526 -0.012904 -0.061533 -0.044804 0.074033 0.063637 -0.009658 0.027507 0.027647 -0.099913 -0.034701 -0.139738 -0.028003 -0.031004 0.029991 -0.029159 -0.005469 0.014793 0.021917 -0.004371 -0.070118 -0.006362 -0.027486 0.028439 0.022102 -0.003551 -0.076949 0.007523 -0.031779 -0.106256 0.072164 -0.036472 -0.036908 -0.055293 0.067617 0.048761 -0.004451 -0.094126 0.011667 -0.052430 -0.017861 -0.096673 0.016335 -0.003804 0.046998 -0.082906 0.137985 -0.011137 0.133004 0.068090 -0.039542 0.079523 -0.008197 0.048779 0.006892 -0.080027 -0.015311 -0.029870 -0.154717 0.036393 -0.102912 -0.037575 0.130264 0.072824 0.093447 -0.042629 0.077048 -0.001066 -0.037122 -0.000562 0.001672 -0.000040 0.004541 0.037582 -0.084102 0.059070 -0.144704 -0.117134 -0.122864 -0.026730 -0.080412 0.039831 -0.070401 -0.145071 0.029456 0.064027 -0.029096 0.050445 0.059798 0.103593 -0.027575 -0.054781 0.019768 -0.031617 0.018865 0.027689 0.073941 -0.098967 -0.005905 0.099075 -0.000726 -0.004309 -0.010978 0.038986 -0.096449 0.011735 0.001991 -0.016529 0.031477 0.001019 0.051745 0.090231 -0.122646 -0.079880 -0.096348 -0.026992 0.029492 0.032583 0.070377 0.045872 0.002155 -0.055225 0.018908 0.122506 -0.027170 0.047861 0.076391 0.076945 -0.002086 -0.080597 -0.039990 0.026177 -0.010028 -0.084782 0.060816 0.086207 0.088824 -0.065281 0.110736 -0.094175 0.013689 -0.030304 -0.093365 0.049308 -0.060125 -0.032147 0.075927 -0.018953 -0.004560 -0.022871 0.019633 0.071864 -0.025266 -0.065459 0.007409 0.023667 0.021623 -0.062785 -0.056573 0.007797 -0.100024 0.060715 -0.086460 0.067368 0.007902 0.049762 -0.081096 -0.093397 0.021755 0.070541 -0.077526 0.077153 -0.064636 0.110213 0.002093 0.108421 0.099989 -0.001075 -0.005984 0.017031 -0.054951 0.113880 0.092576 0.085757 0.087934 -0.025454 -0.001795 -0.117070 -0.013765 -0.094044 -0.065390 0.074569 0.016069 0.019737 -0.031835 -0.022224 0.090446 -0.034526 -0.015246 0.024973 -0.030135 -0.047950 0.062637 -0.034665 -0.012482 -0.017392 0.008992 0.001552 -0.006133 -0.013223 -0.015024 0.012742 0.036348 0.026603 0.008789 -0.060995 -0.022752 0.092960 0.034373 0.024620 -0.015166 -0.079279 -0.069444 -0.027138 -0.078475 -0.058633 -0.015733 0.060606 -0.010000 0.128435 0.052872 -0.007746 0.110012 0.046661 0.012160 -0.235470 0.007362 -0.105111 -0.009935 0.045713 -0.110436 0.036838 -0.011876 0.025126 -0.067761 -0.107450 -0.007933 -0.040272 0.052818 0.003259 -0.021643 -0.080772 -0.014792 -0.014330 -0.024292 0.034906 -0.091039 0.140133 0.101545 -0.092145 0.080461 0.097741 0.040629 -0.013149 0.014695 -0.026152 -0.054478 -0.035913 -0.012965 0.043218 0.000053 -0.131771 0.082731 0.043431 -0.048097 -0.000461 -0.087227 0.018114 0.069337 0.087995 -0.002260 0.040218 -0.045886 0.010195 -0.088729 0.109235 -0.048538 0.049486 -0.038100 0.011039 0.070993 -0.028870 0.001139 -0.017152 -0.039346 -0.029206 0.026541 -0.062388 0.000113 -0.071968 -0.028041 -0.056064 -0.000505 -0.029883 0.000810 -0.022486 -0.026715 0.138619 -0.048069 0.041555 -0.037908 -0.030222 -0.069956 -0.003746 0.073397 -0.030344 0.015067 0.002348 -0.137018 0.041889 -0.016261 -0.045438 -0.101676 -0.008425 0.123295 0.115536 0.014661 -0.030787 0.037954 0.017169 0.042336 -0.048922 -0.010905 -0.043534 -0.062663 -0.017496 -0.023330 0.001415 0.032853 0.066212 -0.012616 -0.036911 0.035929 -0.096322 -0.041042 -0.032300 0.038597 0.066931 -0.103980 -0.046169 -0.000166 0.013582 -0.026409 0.088307 0.010754 0.037100 0.044531 -0.136067 0.187181 0.086226 -0.087821 0.068496 0.009313 -0.024904 -0.075825 0.032504 -0.006881 -0.100889 -0.034611 -0.033864 -0.041761 -0.101510 0.028216 0.030307 -0.057922 -0.151774 -0.043391 -0.053038 -0.023529 -0.119013 -0.211695 -0.010555 -0.062624 -0.054411 -0.006462 0.030542 -0.000705 -0.050100 -0.093534 0.009609 -0.086032 -0.087970 -0.000141 0.021859 -0.056201 -0.027877 -0.074871 -0.039746 -0.013787 -0.017737 0.080575 -0.078257 -0.110575 0.004925 0.100860 -0.127839 -0.030794 0.036190 0.008574 -0.065159 0.093021 0.041649 0.065073 -0.087256 0.140258 0.751558 1.489376 0.044557 0.545685 1.222395 1.130878 -0.114715 1.241074 1.415777 0.325445 -0.034188 0.505579 4.366352 1.835531 2.277107 -2.699186 2.337158 2.246960 4.643053 2.604301 0.122923 0.406787 1.793652 0.365478 -0.617218 -0.052752 0.552087 0.185071 4.281755 0.561377 -0.074418 0.116838 1.389207 3.805237 1.638077 2.356503 -2.617035 2.028845 2.948267 5.901033 2.143577 0.002883 0.986713 1.230162 0.275868 -0.115546 -0.513899 0.116844 0.142425 0.755417 0.357643 -1.113271 -0.023617 2.289170 3.206998 1.992892 2.103759 -3.016254 2.168869 5.688008 5.355658 2.596741 0.089240 1.814081 1.140362 0.242361 1.348850 1.331758 1.144306 0.980660 0.118082 1.553112 -0.171935 -0.096712 2.488003 2.470211 1.694936 1.365888 -3.321676 2.048755 4.026951 3.325762 2.277011 0.042898 1.241800 1.824912 0.262119 1.575743 1.212421 1.600321 2.636458 2.313128 1.240626 -0.400055 0.031879 2.554884 0.531841 2.030663 1.154785 -4.288482 1.435637 3.001652 1.990225 1.274911 0.449920 1.189306 2.218770 1.074482 -0.602819 0.587087 0.379069 0.960572 1.315524 0.754546 -0.603004 0.385472 1.425269 3.380281 2.083234 2.709852 -2.185505 3.002670 3.437561 4.667751 3.298552 1.040547 1.593587 -0.180729 0.913514 -1.227160 -0.219852 0.131144 0.211256 -0.296484 0.712063 -0.667330 1.504220 0.066056 4.229504 2.499928 3.083615 -0.521792 3.622139 1.667705 4.893782 3.412761 0.584547 1.470006 2.232587 0.700826 0.470527 -0.146037 0.154609 1.148569 1.876057 0.639912 -0.875378 0.947612 2.261589 2.678724 3.555145 3.972826 -1.903085 4.570846 5.279632 5.138608 4.055408 0.453247 0.633476 1.140707 0.461326 -0.359270 0.257311 -0.458028 0.187076 0.454487 1.262285 -0.854260 1.035882 2.332781 2.116154 1.543365 2.514703 -1.943053 3.076822 4.220270 3.694688 2.854625 0.203162 0.394544 1.791115 0.617061 1.365159 0.156098 0.080959 -0.033351 1.763169 -0.333107 -1.305069 1.304100 2.338643 0.970511 1.866959 1.812533 -2.805234 2.355764 3.915413 3.100413 2.357822 1.094482 1.747579 1.169767 1.353653 -0.685679 0.692109 0.998796 0.963052 0.711586 0.040181 -0.661397 0.329047 2.803593 2.443509 2.947144 2.797251 -1.356676 3.485292 3.717559 3.538644 3.209889 1.364175 1.385988 1.406784 1.026887 0.349806 0.317516 0.279041 0.792569 0.403845 -0.150797 -1.334086 1.296411 2.232869 3.388917 3.654669 3.301388 -0.727500 3.260721 4.745964 5.457848 3.843371 1.224315 0.893980 1.626483 1.473173 2.665564 0.519058 1.193616 -0.220690 0.111371 0.471551 -1.751917 0.814222 1.482135 1.920568 3.620049 3.991387 -0.261811 4.130887 4.725572 4.523760 3.360822 1.637414 0.463963 -0.058433 1.409696 2.658203 -2.373082 -1.078387 0.614803 -0.063502 0.528980 -0.137498 1.554469 2.785560 1.926851 3.271919 3.302099 8.788371 3.551378 4.301733 2.808850 2.137956 0.630884 0.471824 0.455517 2.567502 3.400815 -2.211996 -1.836836 -2.684174 2.001607 -1.078247 1.155152 2.610395 2.441374 0.467383 2.661485 2.742637 7.904753 2.440725 2.248503 1.748353 1.942385 1.842014 5.494859 1.161080 1.490924 0.173253 1.658482 1.216860 5.722622 -0.182655 0.879331 -0.897775 0.749294 1.127412 0.600688 0.498708 0.947033 -4.894742 1.136057 3.134905 1.630665 1.177943 2.160688 4.568832 2.629834 1.961570 0.785255 1.576370 1.627788 2.916084 0.864218 0.455431 -1.338636 0.191503 0.776837 1.984431 0.149847 1.896093 -3.436600 1.338715 2.339010 1.382153 0.523805 1.761199 2.387157 2.392299 2.342912 1.881657 1.727684 2.607916 2.135861 1.823006 0.880633 -0.509619 1.100722 1.144568 2.390395 1.641177 2.613400 -4.300612 0.826037 1.766516 0.376865 0.266902 -1.617673 -1.965600 -2.403567 -1.368719 5.735011 -2.582170 1.487117 -0.276044 0.585314 1.815616 -0.255777 1.849692 1.633265 3.723788 1.539300 1.741790 4.978325 1.775735 2.674528 1.861602 -0.062666 2.503042 2.373549 1.724033 2.092674 3.350427 1.844703 2.958184 2.763294 3.376003 3.238263 3.160564 -4.727504 -3.565603 -3.835280 -4.046160 -5.723275 13.828195 -1.895283 -1.256984 0.067946 -1.165141 1.364795 2.470551 2.116763 1.061969 -0.159502 1.026882 1.268872 1.917439 0.955448 0.027656 -0.447642 2.084547 2.650584 0.647602 2.502353 2.811011 -4.101157 0.343031 2.844181 1.667691 0.078944 1.308298 1.310934 2.939489 2.014118 1.388181 1.266585 0.526318 0.698675 1.282148 0.049176 -1.681873 1.258888 1.797331 0.983037 2.894783 2.080898 -4.115357 0.168776 1.613832 1.369714 0.110292 1.748905 1.166026 1.900602 2.226944 2.625288 1.694236 0.933939 1.397097 0.756915 0.093985 -0.652440 1.536327 1.687944 0.990683 2.610295 2.013878 -5.128676 0.038249 1.150411 1.319298 0.104643 0.620222 -1.848221 -2.862444 1.060280 4.038707 0.558899 -0.014115 1.798405 -0.578159 -0.009666 0.450302 1.579078 2.005779 1.210149 1.167583 -0.053915 4.244396 0.190112 1.141143 1.071780 0.013236 -1.086616 -0.987800 -0.499725 -0.779458 4.590022 -1.951307 2.899878 -1.905413 2.667737 0.044788 2.251482 1.619431 3.844868 1.081428 1.153625 1.178943 6.109465 0.138495 2.187209 0.671065 0.011997 1.323312 0.858159 0.151439 1.540640 1.040289 1.207124 0.212621 -0.153963 0.505392 0.544599 -0.498981 -0.992858 -0.173314 -0.257611 -0.164574 -0.358060 -0.890785 -0.912140 -0.392426 0.552872 -0.149831 -0.383628 -0.163842 -0.652226 -0.367183 -1.140276 -1.364560 -0.912904 0.423975 0.852788 0.228808 -0.366217 0.012778 0.876719 1.027503 0.171739 -0.426948 -0.326884 -0.273447 -0.817185 -10.588603 0.517806 -1.122924 -0.496680 0.368684 0.244846 -1.092026 -0.107071 0.108376 -0.501190 -0.170023 -0.571598 0.050173 -0.386649 -0.292280 0.368668 0.549303 0.271262 0.332659 -0.060707 0.030611 -0.078922 -0.036615 0.023129 0.005078 -0.012726 0.005775 0.128782 -0.001667 0.051062 -0.037258 -0.018941 -0.042777 0.051616 0.006827 0.040472 -0.051045 0.005865 0.032105 0.016039 0.028279 -0.038552 